digraph Tree {
node [shape=box, style="filled, rounded", color="black", fontname="helvetica"] ;
edge [fontname="helvetica"] ;
0 [label=<Age &le; 41.5<br/>gini = 0.83<br/>samples = 100.0%<br/>value = [0.18, 0.16, 0.15, 0.17, 0.17, 0.16]<br/>class = 1>, fillcolor="#fffefd"] ;
1 [label=<Obligation &le; 0.93<br/>gini = 0.83<br/>samples = 42.2%<br/>value = [0.21, 0.15, 0.18, 0.16, 0.14, 0.16]<br/>class = 1>, fillcolor="#fefaf8"] ;
0 -> 1 [labeldistance=2.5, labelangle=45, headlabel="True"] ;
2 [label=<Obligation &le; 0.64<br/>gini = 0.83<br/>samples = 38.6%<br/>value = [0.22, 0.13, 0.18, 0.16, 0.15, 0.16]<br/>class = 1>, fillcolor="#fefaf7"] ;
1 -> 2 ;
3 [label=<Obligation &le; 0.48<br/>gini = 0.83<br/>samples = 26.5%<br/>value = [0.18, 0.15, 0.18, 0.15, 0.17, 0.18]<br/>class = 3>, fillcolor="#fefffe"] ;
2 -> 3 ;
4 [label=<Obligation &le; 0.26<br/>gini = 0.83<br/>samples = 19.7%<br/>value = [0.19, 0.13, 0.21, 0.16, 0.18, 0.13]<br/>class = 3>, fillcolor="#fafefc"] ;
3 -> 4 ;
5 [label=<Age &le; 21.5<br/>gini = 0.82<br/>samples = 10.7%<br/>value = [0.28, 0.15, 0.15, 0.13, 0.15, 0.14]<br/>class = 1>, fillcolor="#fbece1"] ;
4 -> 5 ;
6 [label=<Obligation &le; 0.09<br/>gini = 0.48<br/>samples = 0.5%<br/>value = [0.0, 0.0, 0.6, 0.4, 0.0, 0.0]<br/>class = 3>, fillcolor="#bdf6d5"] ;
5 -> 6 ;
7 [label=<gini = 0.0<br/>samples = 0.2%<br/>value = [0.0, 0.0, 0.0, 1.0, 0.0, 0.0]<br/>class = 4>, fillcolor="#399de5"] ;
6 -> 7 ;
8 [label=<gini = 0.0<br/>samples = 0.3%<br/>value = [0.0, 0.0, 1.0, 0.0, 0.0, 0.0]<br/>class = 3>, fillcolor="#39e581"] ;
6 -> 8 ;
9 [label=<Age &le; 39.5<br/>gini = 0.81<br/>samples = 10.2%<br/>value = [0.29, 0.16, 0.13, 0.12, 0.16, 0.15]<br/>class = 1>, fillcolor="#fbeadf"] ;
5 -> 9 ;
10 [label=<Obligation &le; 0.19<br/>gini = 0.82<br/>samples = 9.0%<br/>value = [0.27, 0.14, 0.12, 0.12, 0.18, 0.17]<br/>class = 1>, fillcolor="#fcf1ea"] ;
9 -> 10 ;
11 [label=<Obligation &le; 0.11<br/>gini = 0.82<br/>samples = 6.3%<br/>value = [0.21, 0.16, 0.14, 0.11, 0.22, 0.16]<br/>class = 5>, fillcolor="#fcfbfe"] ;
10 -> 11 ;
12 [label=<Obligation &le; 0.04<br/>gini = 0.8<br/>samples = 4.0%<br/>value = [0.3, 0.05, 0.12, 0.15, 0.2, 0.18]<br/>class = 1>, fillcolor="#fcefe6"] ;
11 -> 12 ;
13 [label=<Age &le; 32.5<br/>gini = 0.77<br/>samples = 1.3%<br/>value = [0.23, 0.08, 0.23, 0.0, 0.15, 0.31]<br/>class = 6>, fillcolor="#fcebf5"] ;
12 -> 13 ;
14 [label=<Obligation &le; 0.03<br/>gini = 0.64<br/>samples = 0.5%<br/>value = [0.4, 0.0, 0.4, 0.0, 0.2, 0.0]<br/>class = 1>, fillcolor="#ffffff"] ;
13 -> 14 ;
15 [label=<Age &le; 31.0<br/>gini = 0.44<br/>samples = 0.3%<br/>value = [0.33, 0.0, 0.67, 0.0, 0.0, 0.0]<br/>class = 3>, fillcolor="#9cf2c0"] ;
14 -> 15 ;
16 [label=<gini = 0.0<br/>samples = 0.2%<br/>value = [0.0, 0.0, 1.0, 0.0, 0.0, 0.0]<br/>class = 3>, fillcolor="#39e581"] ;
15 -> 16 ;
17 [label=<gini = 0.0<br/>samples = 0.1%<br/>value = [1.0, 0.0, 0.0, 0.0, 0.0, 0.0]<br/>class = 1>, fillcolor="#e58139"] ;
15 -> 17 ;
18 [label=<Age &le; 29.5<br/>gini = 0.5<br/>samples = 0.2%<br/>value = [0.5, 0.0, 0.0, 0.0, 0.5, 0.0]<br/>class = 1>, fillcolor="#ffffff"] ;
14 -> 18 ;
19 [label=<gini = 0.0<br/>samples = 0.1%<br/>value = [0.0, 0.0, 0.0, 0.0, 1.0, 0.0]<br/>class = 5>, fillcolor="#8139e5"] ;
18 -> 19 ;
20 [label=<gini = 0.0<br/>samples = 0.1%<br/>value = [1.0, 0.0, 0.0, 0.0, 0.0, 0.0]<br/>class = 1>, fillcolor="#e58139"] ;
18 -> 20 ;
21 [label=<Age &le; 33.5<br/>gini = 0.69<br/>samples = 0.8%<br/>value = [0.12, 0.12, 0.12, 0.0, 0.12, 0.5]<br/>class = 6>, fillcolor="#f4aad5"] ;
13 -> 21 ;
22 [label=<gini = 0.0<br/>samples = 0.3%<br/>value = [0.0, 0.0, 0.0, 0.0, 0.0, 1.0]<br/>class = 6>, fillcolor="#e5399d"] ;
21 -> 22 ;
23 [label=<Obligation &le; 0.01<br/>gini = 0.8<br/>samples = 0.5%<br/>value = [0.2, 0.2, 0.2, 0.0, 0.2, 0.2]<br/>class = 1>, fillcolor="#ffffff"] ;
21 -> 23 ;
24 [label=<gini = 0.0<br/>samples = 0.1%<br/>value = [0.0, 0.0, 0.0, 0.0, 0.0, 1.0]<br/>class = 6>, fillcolor="#e5399d"] ;
23 -> 24 ;
25 [label=<Obligation &le; 0.02<br/>gini = 0.75<br/>samples = 0.4%<br/>value = [0.25, 0.25, 0.25, 0.0, 0.25, 0.0]<br/>class = 1>, fillcolor="#ffffff"] ;
23 -> 25 ;
26 [label=<gini = 0.0<br/>samples = 0.1%<br/>value = [0.0, 1.0, 0.0, 0.0, 0.0, 0.0]<br/>class = 2>, fillcolor="#9de539"] ;
25 -> 26 ;
27 [label=<Age &le; 35.0<br/>gini = 0.67<br/>samples = 0.3%<br/>value = [0.33, 0.0, 0.33, 0.0, 0.33, 0.0]<br/>class = 1>, fillcolor="#ffffff"] ;
25 -> 27 ;
28 [label=<gini = 0.0<br/>samples = 0.1%<br/>value = [0.0, 0.0, 1.0, 0.0, 0.0, 0.0]<br/>class = 3>, fillcolor="#39e581"] ;
27 -> 28 ;
29 [label=<Obligation &le; 0.03<br/>gini = 0.5<br/>samples = 0.2%<br/>value = [0.5, 0.0, 0.0, 0.0, 0.5, 0.0]<br/>class = 1>, fillcolor="#ffffff"] ;
27 -> 29 ;
30 [label=<gini = 0.0<br/>samples = 0.1%<br/>value = [1.0, 0.0, 0.0, 0.0, 0.0, 0.0]<br/>class = 1>, fillcolor="#e58139"] ;
29 -> 30 ;
31 [label=<gini = 0.0<br/>samples = 0.1%<br/>value = [0.0, 0.0, 0.0, 0.0, 1.0, 0.0]<br/>class = 5>, fillcolor="#8139e5"] ;
29 -> 31 ;
32 [label=<Obligation &le; 0.05<br/>gini = 0.77<br/>samples = 2.7%<br/>value = [0.33, 0.04, 0.07, 0.22, 0.22, 0.11]<br/>class = 1>, fillcolor="#fbede3"] ;
12 -> 32 ;
33 [label=<Obligation &le; 0.04<br/>gini = 0.53<br/>samples = 0.8%<br/>value = [0.62, 0.0, 0.0, 0.12, 0.25, 0.0]<br/>class = 1>, fillcolor="#f2c09c"] ;
32 -> 33 ;
34 [label=<gini = 0.0<br/>samples = 0.1%<br/>value = [0.0, 0.0, 0.0, 1.0, 0.0, 0.0]<br/>class = 4>, fillcolor="#399de5"] ;
33 -> 34 ;
35 [label=<Age &le; 30.0<br/>gini = 0.41<br/>samples = 0.7%<br/>value = [0.71, 0.0, 0.0, 0.0, 0.29, 0.0]<br/>class = 1>, fillcolor="#efb388"] ;
33 -> 35 ;
36 [label=<Age &le; 27.0<br/>gini = 0.5<br/>samples = 0.4%<br/>value = [0.5, 0.0, 0.0, 0.0, 0.5, 0.0]<br/>class = 1>, fillcolor="#ffffff"] ;
35 -> 36 ;
37 [label=<Obligation &le; 0.05<br/>gini = 0.44<br/>samples = 0.3%<br/>value = [0.67, 0.0, 0.0, 0.0, 0.33, 0.0]<br/>class = 1>, fillcolor="#f2c09c"] ;
36 -> 37 ;
38 [label=<gini = 0.0<br/>samples = 0.1%<br/>value = [0.0, 0.0, 0.0, 0.0, 1.0, 0.0]<br/>class = 5>, fillcolor="#8139e5"] ;
37 -> 38 ;
39 [label=<gini = 0.0<br/>samples = 0.2%<br/>value = [1.0, 0.0, 0.0, 0.0, 0.0, 0.0]<br/>class = 1>, fillcolor="#e58139"] ;
37 -> 39 ;
40 [label=<gini = 0.0<br/>samples = 0.1%<br/>value = [0.0, 0.0, 0.0, 0.0, 1.0, 0.0]<br/>class = 5>, fillcolor="#8139e5"] ;
36 -> 40 ;
41 [label=<gini = 0.0<br/>samples = 0.3%<br/>value = [1.0, 0.0, 0.0, 0.0, 0.0, 0.0]<br/>class = 1>, fillcolor="#e58139"] ;
35 -> 41 ;
42 [label=<Obligation &le; 0.09<br/>gini = 0.8<br/>samples = 1.9%<br/>value = [0.21, 0.05, 0.11, 0.26, 0.21, 0.16]<br/>class = 4>, fillcolor="#f2f8fd"] ;
32 -> 42 ;
43 [label=<Age &le; 30.0<br/>gini = 0.74<br/>samples = 1.0%<br/>value = [0.0, 0.1, 0.2, 0.4, 0.1, 0.2]<br/>class = 4>, fillcolor="#cee6f8"] ;
42 -> 43 ;
44 [label=<Obligation &le; 0.06<br/>gini = 0.48<br/>samples = 0.5%<br/>value = [0.0, 0.0, 0.0, 0.6, 0.0, 0.4]<br/>class = 4>, fillcolor="#bddef6"] ;
43 -> 44 ;
45 [label=<gini = 0.0<br/>samples = 0.1%<br/>value = [0.0, 0.0, 0.0, 0.0, 0.0, 1.0]<br/>class = 6>, fillcolor="#e5399d"] ;
44 -> 45 ;
46 [label=<Obligation &le; 0.08<br/>gini = 0.38<br/>samples = 0.4%<br/>value = [0.0, 0.0, 0.0, 0.75, 0.0, 0.25]<br/>class = 4>, fillcolor="#7bbeee"] ;
44 -> 46 ;
47 [label=<gini = 0.0<br/>samples = 0.2%<br/>value = [0.0, 0.0, 0.0, 1.0, 0.0, 0.0]<br/>class = 4>, fillcolor="#399de5"] ;
46 -> 47 ;
48 [label=<Obligation &le; 0.09<br/>gini = 0.5<br/>samples = 0.2%<br/>value = [0.0, 0.0, 0.0, 0.5, 0.0, 0.5]<br/>class = 4>, fillcolor="#ffffff"] ;
46 -> 48 ;
49 [label=<gini = 0.0<br/>samples = 0.1%<br/>value = [0.0, 0.0, 0.0, 0.0, 0.0, 1.0]<br/>class = 6>, fillcolor="#e5399d"] ;
48 -> 49 ;
50 [label=<gini = 0.0<br/>samples = 0.1%<br/>value = [0.0, 0.0, 0.0, 1.0, 0.0, 0.0]<br/>class = 4>, fillcolor="#399de5"] ;
48 -> 50 ;
51 [label=<Obligation &le; 0.06<br/>gini = 0.72<br/>samples = 0.5%<br/>value = [0.0, 0.2, 0.4, 0.2, 0.2, 0.0]<br/>class = 3>, fillcolor="#cef8e0"] ;
43 -> 51 ;
52 [label=<gini = 0.0<br/>samples = 0.2%<br/>value = [0.0, 0.0, 1.0, 0.0, 0.0, 0.0]<br/>class = 3>, fillcolor="#39e581"] ;
51 -> 52 ;
53 [label=<Obligation &le; 0.07<br/>gini = 0.67<br/>samples = 0.3%<br/>value = [0.0, 0.33, 0.0, 0.33, 0.33, 0.0]<br/>class = 2>, fillcolor="#ffffff"] ;
51 -> 53 ;
54 [label=<gini = 0.0<br/>samples = 0.1%<br/>value = [0.0, 0.0, 0.0, 1.0, 0.0, 0.0]<br/>class = 4>, fillcolor="#399de5"] ;
53 -> 54 ;
55 [label=<Age &le; 33.5<br/>gini = 0.5<br/>samples = 0.2%<br/>value = [0.0, 0.5, 0.0, 0.0, 0.5, 0.0]<br/>class = 2>, fillcolor="#ffffff"] ;
53 -> 55 ;
56 [label=<gini = 0.0<br/>samples = 0.1%<br/>value = [0.0, 1.0, 0.0, 0.0, 0.0, 0.0]<br/>class = 2>, fillcolor="#9de539"] ;
55 -> 56 ;
57 [label=<gini = 0.0<br/>samples = 0.1%<br/>value = [0.0, 0.0, 0.0, 0.0, 1.0, 0.0]<br/>class = 5>, fillcolor="#8139e5"] ;
55 -> 57 ;
58 [label=<Obligation &le; 0.09<br/>gini = 0.67<br/>samples = 0.9%<br/>value = [0.44, 0.0, 0.0, 0.11, 0.33, 0.11]<br/>class = 1>, fillcolor="#fbeade"] ;
42 -> 58 ;
59 [label=<gini = 0.0<br/>samples = 0.2%<br/>value = [0.0, 0.0, 0.0, 0.0, 1.0, 0.0]<br/>class = 5>, fillcolor="#8139e5"] ;
58 -> 59 ;
60 [label=<Age &le; 33.5<br/>gini = 0.61<br/>samples = 0.7%<br/>value = [0.57, 0.0, 0.0, 0.14, 0.14, 0.14]<br/>class = 1>, fillcolor="#f2c09c"] ;
58 -> 60 ;
61 [label=<Age &le; 30.0<br/>gini = 0.5<br/>samples = 0.6%<br/>value = [0.67, 0.0, 0.0, 0.0, 0.17, 0.17]<br/>class = 1>, fillcolor="#efb388"] ;
60 -> 61 ;
62 [label=<Age &le; 25.0<br/>gini = 0.67<br/>samples = 0.3%<br/>value = [0.33, 0.0, 0.0, 0.0, 0.33, 0.33]<br/>class = 1>, fillcolor="#ffffff"] ;
61 -> 62 ;
63 [label=<gini = 0.0<br/>samples = 0.1%<br/>value = [1.0, 0.0, 0.0, 0.0, 0.0, 0.0]<br/>class = 1>, fillcolor="#e58139"] ;
62 -> 63 ;
64 [label=<Obligation &le; 0.1<br/>gini = 0.5<br/>samples = 0.2%<br/>value = [0.0, 0.0, 0.0, 0.0, 0.5, 0.5]<br/>class = 5>, fillcolor="#ffffff"] ;
62 -> 64 ;
65 [label=<gini = 0.0<br/>samples = 0.1%<br/>value = [0.0, 0.0, 0.0, 0.0, 1.0, 0.0]<br/>class = 5>, fillcolor="#8139e5"] ;
64 -> 65 ;
66 [label=<gini = 0.0<br/>samples = 0.1%<br/>value = [0.0, 0.0, 0.0, 0.0, 0.0, 1.0]<br/>class = 6>, fillcolor="#e5399d"] ;
64 -> 66 ;
67 [label=<gini = 0.0<br/>samples = 0.3%<br/>value = [1.0, 0.0, 0.0, 0.0, 0.0, 0.0]<br/>class = 1>, fillcolor="#e58139"] ;
61 -> 67 ;
68 [label=<gini = 0.0<br/>samples = 0.1%<br/>value = [0.0, 0.0, 0.0, 1.0, 0.0, 0.0]<br/>class = 4>, fillcolor="#399de5"] ;
60 -> 68 ;
69 [label=<Age &le; 24.5<br/>gini = 0.76<br/>samples = 2.3%<br/>value = [0.04, 0.35, 0.17, 0.04, 0.26, 0.13]<br/>class = 2>, fillcolor="#f3fce8"] ;
11 -> 69 ;
70 [label=<Obligation &le; 0.15<br/>gini = 0.62<br/>samples = 0.4%<br/>value = [0.25, 0.25, 0.5, 0.0, 0.0, 0.0]<br/>class = 3>, fillcolor="#bdf6d5"] ;
69 -> 70 ;
71 [label=<Age &le; 23.5<br/>gini = 0.5<br/>samples = 0.2%<br/>value = [0.5, 0.5, 0.0, 0.0, 0.0, 0.0]<br/>class = 1>, fillcolor="#ffffff"] ;
70 -> 71 ;
72 [label=<gini = 0.0<br/>samples = 0.1%<br/>value = [0.0, 1.0, 0.0, 0.0, 0.0, 0.0]<br/>class = 2>, fillcolor="#9de539"] ;
71 -> 72 ;
73 [label=<gini = 0.0<br/>samples = 0.1%<br/>value = [1.0, 0.0, 0.0, 0.0, 0.0, 0.0]<br/>class = 1>, fillcolor="#e58139"] ;
71 -> 73 ;
74 [label=<gini = 0.0<br/>samples = 0.2%<br/>value = [0.0, 0.0, 1.0, 0.0, 0.0, 0.0]<br/>class = 3>, fillcolor="#39e581"] ;
70 -> 74 ;
75 [label=<Obligation &le; 0.19<br/>gini = 0.73<br/>samples = 1.9%<br/>value = [0.0, 0.37, 0.11, 0.05, 0.32, 0.16]<br/>class = 2>, fillcolor="#f7fdf0"] ;
69 -> 75 ;
76 [label=<Obligation &le; 0.13<br/>gini = 0.7<br/>samples = 1.8%<br/>value = [0.0, 0.39, 0.06, 0.06, 0.33, 0.17]<br/>class = 2>, fillcolor="#f7fdee"] ;
75 -> 76 ;
77 [label=<Age &le; 30.0<br/>gini = 0.44<br/>samples = 0.3%<br/>value = [0.0, 0.0, 0.0, 0.0, 0.67, 0.33]<br/>class = 5>, fillcolor="#c09cf2"] ;
76 -> 77 ;
78 [label=<gini = 0.0<br/>samples = 0.2%<br/>value = [0.0, 0.0, 0.0, 0.0, 1.0, 0.0]<br/>class = 5>, fillcolor="#8139e5"] ;
77 -> 78 ;
79 [label=<gini = 0.0<br/>samples = 0.1%<br/>value = [0.0, 0.0, 0.0, 0.0, 0.0, 1.0]<br/>class = 6>, fillcolor="#e5399d"] ;
77 -> 79 ;
80 [label=<Age &le; 28.5<br/>gini = 0.68<br/>samples = 1.5%<br/>value = [0.0, 0.47, 0.07, 0.07, 0.27, 0.13]<br/>class = 2>, fillcolor="#e4f8c9"] ;
76 -> 80 ;
81 [label=<Obligation &le; 0.14<br/>gini = 0.5<br/>samples = 0.6%<br/>value = [0.0, 0.67, 0.17, 0.0, 0.0, 0.17]<br/>class = 2>, fillcolor="#c4ef88"] ;
80 -> 81 ;
82 [label=<gini = 0.0<br/>samples = 0.1%<br/>value = [0.0, 0.0, 0.0, 0.0, 0.0, 1.0]<br/>class = 6>, fillcolor="#e5399d"] ;
81 -> 82 ;
83 [label=<Obligation &le; 0.17<br/>gini = 0.32<br/>samples = 0.5%<br/>value = [0.0, 0.8, 0.2, 0.0, 0.0, 0.0]<br/>class = 2>, fillcolor="#b6ec6a"] ;
81 -> 83 ;
84 [label=<gini = 0.0<br/>samples = 0.2%<br/>value = [0.0, 1.0, 0.0, 0.0, 0.0, 0.0]<br/>class = 2>, fillcolor="#9de539"] ;
83 -> 84 ;
85 [label=<Obligation &le; 0.17<br/>gini = 0.44<br/>samples = 0.3%<br/>value = [0.0, 0.67, 0.33, 0.0, 0.0, 0.0]<br/>class = 2>, fillcolor="#cef29c"] ;
83 -> 85 ;
86 [label=<gini = 0.0<br/>samples = 0.1%<br/>value = [0.0, 0.0, 1.0, 0.0, 0.0, 0.0]<br/>class = 3>, fillcolor="#39e581"] ;
85 -> 86 ;
87 [label=<gini = 0.0<br/>samples = 0.2%<br/>value = [0.0, 1.0, 0.0, 0.0, 0.0, 0.0]<br/>class = 2>, fillcolor="#9de539"] ;
85 -> 87 ;
88 [label=<Obligation &le; 0.15<br/>gini = 0.67<br/>samples = 0.9%<br/>value = [0.0, 0.33, 0.0, 0.11, 0.44, 0.11]<br/>class = 5>, fillcolor="#eadefb"] ;
80 -> 88 ;
89 [label=<Age &le; 35.5<br/>gini = 0.38<br/>samples = 0.4%<br/>value = [0.0, 0.75, 0.0, 0.0, 0.25, 0.0]<br/>class = 2>, fillcolor="#beee7b"] ;
88 -> 89 ;
90 [label=<Age &le; 33.0<br/>gini = 0.5<br/>samples = 0.2%<br/>value = [0.0, 0.5, 0.0, 0.0, 0.5, 0.0]<br/>class = 2>, fillcolor="#ffffff"] ;
89 -> 90 ;
91 [label=<gini = 0.0<br/>samples = 0.1%<br/>value = [0.0, 1.0, 0.0, 0.0, 0.0, 0.0]<br/>class = 2>, fillcolor="#9de539"] ;
90 -> 91 ;
92 [label=<gini = 0.0<br/>samples = 0.1%<br/>value = [0.0, 0.0, 0.0, 0.0, 1.0, 0.0]<br/>class = 5>, fillcolor="#8139e5"] ;
90 -> 92 ;
93 [label=<gini = 0.0<br/>samples = 0.2%<br/>value = [0.0, 1.0, 0.0, 0.0, 0.0, 0.0]<br/>class = 2>, fillcolor="#9de539"] ;
89 -> 93 ;
94 [label=<Obligation &le; 0.18<br/>gini = 0.56<br/>samples = 0.5%<br/>value = [0.0, 0.0, 0.0, 0.2, 0.6, 0.2]<br/>class = 5>, fillcolor="#c09cf2"] ;
88 -> 94 ;
95 [label=<Obligation &le; 0.17<br/>gini = 0.38<br/>samples = 0.4%<br/>value = [0.0, 0.0, 0.0, 0.0, 0.75, 0.25]<br/>class = 5>, fillcolor="#ab7bee"] ;
94 -> 95 ;
96 [label=<Obligation &le; 0.16<br/>gini = 0.5<br/>samples = 0.2%<br/>value = [0.0, 0.0, 0.0, 0.0, 0.5, 0.5]<br/>class = 5>, fillcolor="#ffffff"] ;
95 -> 96 ;
97 [label=<gini = 0.0<br/>samples = 0.1%<br/>value = [0.0, 0.0, 0.0, 0.0, 1.0, 0.0]<br/>class = 5>, fillcolor="#8139e5"] ;
96 -> 97 ;
98 [label=<gini = 0.0<br/>samples = 0.1%<br/>value = [0.0, 0.0, 0.0, 0.0, 0.0, 1.0]<br/>class = 6>, fillcolor="#e5399d"] ;
96 -> 98 ;
99 [label=<gini = 0.0<br/>samples = 0.2%<br/>value = [0.0, 0.0, 0.0, 0.0, 1.0, 0.0]<br/>class = 5>, fillcolor="#8139e5"] ;
95 -> 99 ;
100 [label=<gini = 0.0<br/>samples = 0.1%<br/>value = [0.0, 0.0, 0.0, 1.0, 0.0, 0.0]<br/>class = 4>, fillcolor="#399de5"] ;
94 -> 100 ;
101 [label=<gini = 0.0<br/>samples = 0.1%<br/>value = [0.0, 0.0, 1.0, 0.0, 0.0, 0.0]<br/>class = 3>, fillcolor="#39e581"] ;
75 -> 101 ;
102 [label=<Age &le; 33.5<br/>gini = 0.75<br/>samples = 2.7%<br/>value = [0.41, 0.11, 0.07, 0.15, 0.07, 0.19]<br/>class = 1>, fillcolor="#f8ddc9"] ;
10 -> 102 ;
103 [label=<Age &le; 22.5<br/>gini = 0.6<br/>samples = 1.7%<br/>value = [0.59, 0.0, 0.06, 0.18, 0.06, 0.12]<br/>class = 1>, fillcolor="#f2c09c"] ;
102 -> 103 ;
104 [label=<Obligation &le; 0.23<br/>gini = 0.5<br/>samples = 0.2%<br/>value = [0.0, 0.0, 0.5, 0.0, 0.0, 0.5]<br/>class = 3>, fillcolor="#ffffff"] ;
103 -> 104 ;
105 [label=<gini = 0.0<br/>samples = 0.1%<br/>value = [0.0, 0.0, 1.0, 0.0, 0.0, 0.0]<br/>class = 3>, fillcolor="#39e581"] ;
104 -> 105 ;
106 [label=<gini = 0.0<br/>samples = 0.1%<br/>value = [0.0, 0.0, 0.0, 0.0, 0.0, 1.0]<br/>class = 6>, fillcolor="#e5399d"] ;
104 -> 106 ;
107 [label=<Obligation &le; 0.21<br/>gini = 0.51<br/>samples = 1.5%<br/>value = [0.67, 0.0, 0.0, 0.2, 0.07, 0.07]<br/>class = 1>, fillcolor="#f0b68c"] ;
103 -> 107 ;
108 [label=<gini = 0.0<br/>samples = 0.4%<br/>value = [1.0, 0.0, 0.0, 0.0, 0.0, 0.0]<br/>class = 1>, fillcolor="#e58139"] ;
107 -> 108 ;
109 [label=<Obligation &le; 0.22<br/>gini = 0.61<br/>samples = 1.1%<br/>value = [0.55, 0.0, 0.0, 0.27, 0.09, 0.09]<br/>class = 1>, fillcolor="#f5d0b5"] ;
107 -> 109 ;
110 [label=<gini = 0.0<br/>samples = 0.1%<br/>value = [0.0, 0.0, 0.0, 0.0, 0.0, 1.0]<br/>class = 6>, fillcolor="#e5399d"] ;
109 -> 110 ;
111 [label=<Obligation &le; 0.22<br/>gini = 0.54<br/>samples = 1.0%<br/>value = [0.6, 0.0, 0.0, 0.3, 0.1, 0.0]<br/>class = 1>, fillcolor="#f4c9aa"] ;
109 -> 111 ;
112 [label=<gini = 0.0<br/>samples = 0.1%<br/>value = [0.0, 0.0, 0.0, 1.0, 0.0, 0.0]<br/>class = 4>, fillcolor="#399de5"] ;
111 -> 112 ;
113 [label=<Age &le; 29.5<br/>gini = 0.49<br/>samples = 0.9%<br/>value = [0.67, 0.0, 0.0, 0.22, 0.11, 0.0]<br/>class = 1>, fillcolor="#f0b78e"] ;
111 -> 113 ;
114 [label=<Obligation &le; 0.24<br/>gini = 0.28<br/>samples = 0.6%<br/>value = [0.83, 0.0, 0.0, 0.0, 0.17, 0.0]<br/>class = 1>, fillcolor="#ea9a61"] ;
113 -> 114 ;
115 [label=<gini = 0.0<br/>samples = 0.5%<br/>value = [1.0, 0.0, 0.0, 0.0, 0.0, 0.0]<br/>class = 1>, fillcolor="#e58139"] ;
114 -> 115 ;
116 [label=<gini = 0.0<br/>samples = 0.1%<br/>value = [0.0, 0.0, 0.0, 0.0, 1.0, 0.0]<br/>class = 5>, fillcolor="#8139e5"] ;
114 -> 116 ;
117 [label=<Obligation &le; 0.26<br/>gini = 0.44<br/>samples = 0.3%<br/>value = [0.33, 0.0, 0.0, 0.67, 0.0, 0.0]<br/>class = 4>, fillcolor="#9ccef2"] ;
113 -> 117 ;
118 [label=<gini = 0.0<br/>samples = 0.2%<br/>value = [0.0, 0.0, 0.0, 1.0, 0.0, 0.0]<br/>class = 4>, fillcolor="#399de5"] ;
117 -> 118 ;
119 [label=<gini = 0.0<br/>samples = 0.1%<br/>value = [1.0, 0.0, 0.0, 0.0, 0.0, 0.0]<br/>class = 1>, fillcolor="#e58139"] ;
117 -> 119 ;
120 [label=<Obligation &le; 0.23<br/>gini = 0.78<br/>samples = 1.0%<br/>value = [0.1, 0.3, 0.1, 0.1, 0.1, 0.3]<br/>class = 2>, fillcolor="#ffffff"] ;
102 -> 120 ;
121 [label=<Age &le; 35.0<br/>gini = 0.74<br/>samples = 0.9%<br/>value = [0.11, 0.33, 0.11, 0.11, 0.0, 0.33]<br/>class = 2>, fillcolor="#ffffff"] ;
120 -> 121 ;
122 [label=<Obligation &le; 0.22<br/>gini = 0.5<br/>samples = 0.2%<br/>value = [0.0, 0.5, 0.5, 0.0, 0.0, 0.0]<br/>class = 2>, fillcolor="#ffffff"] ;
121 -> 122 ;
123 [label=<gini = 0.0<br/>samples = 0.1%<br/>value = [0.0, 0.0, 1.0, 0.0, 0.0, 0.0]<br/>class = 3>, fillcolor="#39e581"] ;
122 -> 123 ;
124 [label=<gini = 0.0<br/>samples = 0.1%<br/>value = [0.0, 1.0, 0.0, 0.0, 0.0, 0.0]<br/>class = 2>, fillcolor="#9de539"] ;
122 -> 124 ;
125 [label=<Obligation &le; 0.2<br/>gini = 0.69<br/>samples = 0.7%<br/>value = [0.14, 0.29, 0.0, 0.14, 0.0, 0.43]<br/>class = 6>, fillcolor="#fad7eb"] ;
121 -> 125 ;
126 [label=<gini = 0.0<br/>samples = 0.1%<br/>value = [0.0, 1.0, 0.0, 0.0, 0.0, 0.0]<br/>class = 2>, fillcolor="#9de539"] ;
125 -> 126 ;
127 [label=<Obligation &le; 0.23<br/>gini = 0.67<br/>samples = 0.6%<br/>value = [0.17, 0.17, 0.0, 0.17, 0.0, 0.5]<br/>class = 6>, fillcolor="#f5b0d8"] ;
125 -> 127 ;
128 [label=<Obligation &le; 0.21<br/>gini = 0.44<br/>samples = 0.3%<br/>value = [0.33, 0.0, 0.0, 0.0, 0.0, 0.67]<br/>class = 6>, fillcolor="#f29cce"] ;
127 -> 128 ;
129 [label=<gini = 0.0<br/>samples = 0.1%<br/>value = [0.0, 0.0, 0.0, 0.0, 0.0, 1.0]<br/>class = 6>, fillcolor="#e5399d"] ;
128 -> 129 ;
130 [label=<Age &le; 38.0<br/>gini = 0.5<br/>samples = 0.2%<br/>value = [0.5, 0.0, 0.0, 0.0, 0.0, 0.5]<br/>class = 1>, fillcolor="#ffffff"] ;
128 -> 130 ;
131 [label=<gini = 0.0<br/>samples = 0.1%<br/>value = [1.0, 0.0, 0.0, 0.0, 0.0, 0.0]<br/>class = 1>, fillcolor="#e58139"] ;
130 -> 131 ;
132 [label=<gini = 0.0<br/>samples = 0.1%<br/>value = [0.0, 0.0, 0.0, 0.0, 0.0, 1.0]<br/>class = 6>, fillcolor="#e5399d"] ;
130 -> 132 ;
133 [label=<Age &le; 36.5<br/>gini = 0.67<br/>samples = 0.3%<br/>value = [0.0, 0.33, 0.0, 0.33, 0.0, 0.33]<br/>class = 2>, fillcolor="#ffffff"] ;
127 -> 133 ;
134 [label=<gini = 0.0<br/>samples = 0.1%<br/>value = [0.0, 0.0, 0.0, 1.0, 0.0, 0.0]<br/>class = 4>, fillcolor="#399de5"] ;
133 -> 134 ;
135 [label=<Obligation &le; 0.23<br/>gini = 0.5<br/>samples = 0.2%<br/>value = [0.0, 0.5, 0.0, 0.0, 0.0, 0.5]<br/>class = 2>, fillcolor="#ffffff"] ;
133 -> 135 ;
136 [label=<gini = 0.0<br/>samples = 0.1%<br/>value = [0.0, 1.0, 0.0, 0.0, 0.0, 0.0]<br/>class = 2>, fillcolor="#9de539"] ;
135 -> 136 ;
137 [label=<gini = 0.0<br/>samples = 0.1%<br/>value = [0.0, 0.0, 0.0, 0.0, 0.0, 1.0]<br/>class = 6>, fillcolor="#e5399d"] ;
135 -> 137 ;
138 [label=<gini = 0.0<br/>samples = 0.1%<br/>value = [0.0, 0.0, 0.0, 0.0, 1.0, 0.0]<br/>class = 5>, fillcolor="#8139e5"] ;
120 -> 138 ;
139 [label=<Obligation &le; 0.23<br/>gini = 0.65<br/>samples = 1.2%<br/>value = [0.5, 0.25, 0.17, 0.08, 0.0, 0.0]<br/>class = 1>, fillcolor="#f6d5bd"] ;
9 -> 139 ;
140 [label=<Obligation &le; 0.21<br/>gini = 0.62<br/>samples = 0.9%<br/>value = [0.56, 0.11, 0.22, 0.11, 0.0, 0.0]<br/>class = 1>, fillcolor="#f4c9aa"] ;
139 -> 140 ;
141 [label=<Obligation &le; 0.05<br/>gini = 0.56<br/>samples = 0.8%<br/>value = [0.62, 0.12, 0.12, 0.12, 0.0, 0.0]<br/>class = 1>, fillcolor="#f0b78e"] ;
140 -> 141 ;
142 [label=<Obligation &le; 0.02<br/>gini = 0.5<br/>samples = 0.2%<br/>value = [0.5, 0.5, 0.0, 0.0, 0.0, 0.0]<br/>class = 1>, fillcolor="#ffffff"] ;
141 -> 142 ;
143 [label=<gini = 0.0<br/>samples = 0.1%<br/>value = [1.0, 0.0, 0.0, 0.0, 0.0, 0.0]<br/>class = 1>, fillcolor="#e58139"] ;
142 -> 143 ;
144 [label=<gini = 0.0<br/>samples = 0.1%<br/>value = [0.0, 1.0, 0.0, 0.0, 0.0, 0.0]<br/>class = 2>, fillcolor="#9de539"] ;
142 -> 144 ;
145 [label=<Obligation &le; 0.1<br/>gini = 0.5<br/>samples = 0.6%<br/>value = [0.67, 0.0, 0.17, 0.17, 0.0, 0.0]<br/>class = 1>, fillcolor="#efb388"] ;
141 -> 145 ;
146 [label=<Obligation &le; 0.07<br/>gini = 0.5<br/>samples = 0.2%<br/>value = [0.5, 0.0, 0.5, 0.0, 0.0, 0.0]<br/>class = 1>, fillcolor="#ffffff"] ;
145 -> 146 ;
147 [label=<gini = 0.0<br/>samples = 0.1%<br/>value = [1.0, 0.0, 0.0, 0.0, 0.0, 0.0]<br/>class = 1>, fillcolor="#e58139"] ;
146 -> 147 ;
148 [label=<gini = 0.0<br/>samples = 0.1%<br/>value = [0.0, 0.0, 1.0, 0.0, 0.0, 0.0]<br/>class = 3>, fillcolor="#39e581"] ;
146 -> 148 ;
149 [label=<Obligation &le; 0.14<br/>gini = 0.38<br/>samples = 0.4%<br/>value = [0.75, 0.0, 0.0, 0.25, 0.0, 0.0]<br/>class = 1>, fillcolor="#eeab7b"] ;
145 -> 149 ;
150 [label=<gini = 0.0<br/>samples = 0.2%<br/>value = [1.0, 0.0, 0.0, 0.0, 0.0, 0.0]<br/>class = 1>, fillcolor="#e58139"] ;
149 -> 150 ;
151 [label=<Age &le; 40.5<br/>gini = 0.5<br/>samples = 0.2%<br/>value = [0.5, 0.0, 0.0, 0.5, 0.0, 0.0]<br/>class = 1>, fillcolor="#ffffff"] ;
149 -> 151 ;
152 [label=<gini = 0.0<br/>samples = 0.1%<br/>value = [1.0, 0.0, 0.0, 0.0, 0.0, 0.0]<br/>class = 1>, fillcolor="#e58139"] ;
151 -> 152 ;
153 [label=<gini = 0.0<br/>samples = 0.1%<br/>value = [0.0, 0.0, 0.0, 1.0, 0.0, 0.0]<br/>class = 4>, fillcolor="#399de5"] ;
151 -> 153 ;
154 [label=<gini = 0.0<br/>samples = 0.1%<br/>value = [0.0, 0.0, 1.0, 0.0, 0.0, 0.0]<br/>class = 3>, fillcolor="#39e581"] ;
140 -> 154 ;
155 [label=<Age &le; 40.5<br/>gini = 0.44<br/>samples = 0.3%<br/>value = [0.33, 0.67, 0.0, 0.0, 0.0, 0.0]<br/>class = 2>, fillcolor="#cef29c"] ;
139 -> 155 ;
156 [label=<gini = 0.0<br/>samples = 0.1%<br/>value = [1.0, 0.0, 0.0, 0.0, 0.0, 0.0]<br/>class = 1>, fillcolor="#e58139"] ;
155 -> 156 ;
157 [label=<gini = 0.0<br/>samples = 0.2%<br/>value = [0.0, 1.0, 0.0, 0.0, 0.0, 0.0]<br/>class = 2>, fillcolor="#9de539"] ;
155 -> 157 ;
158 [label=<Obligation &le; 0.27<br/>gini = 0.8<br/>samples = 9.0%<br/>value = [0.08, 0.11, 0.28, 0.2, 0.21, 0.12]<br/>class = 3>, fillcolor="#eefdf4"] ;
4 -> 158 ;
159 [label=<gini = 0.0<br/>samples = 0.3%<br/>value = [0.0, 0.0, 0.0, 0.0, 1.0, 0.0]<br/>class = 5>, fillcolor="#8139e5"] ;
158 -> 159 ;
160 [label=<Age &le; 40.5<br/>gini = 0.81<br/>samples = 8.7%<br/>value = [0.08, 0.11, 0.29, 0.21, 0.18, 0.13]<br/>class = 3>, fillcolor="#ebfcf2"] ;
158 -> 160 ;
161 [label=<Obligation &le; 0.27<br/>gini = 0.8<br/>samples = 8.3%<br/>value = [0.08, 0.12, 0.29, 0.22, 0.19, 0.1]<br/>class = 3>, fillcolor="#edfdf3"] ;
160 -> 161 ;
162 [label=<gini = 0.0<br/>samples = 0.3%<br/>value = [0.0, 0.0, 1.0, 0.0, 0.0, 0.0]<br/>class = 3>, fillcolor="#39e581"] ;
161 -> 162 ;
163 [label=<Obligation &le; 0.28<br/>gini = 0.81<br/>samples = 8.0%<br/>value = [0.09, 0.12, 0.26, 0.22, 0.2, 0.1]<br/>class = 3>, fillcolor="#f5fef9"] ;
161 -> 163 ;
164 [label=<gini = 0.0<br/>samples = 0.3%<br/>value = [0.0, 0.0, 0.0, 1.0, 0.0, 0.0]<br/>class = 4>, fillcolor="#399de5"] ;
163 -> 164 ;
165 [label=<Age &le; 21.5<br/>gini = 0.81<br/>samples = 7.7%<br/>value = [0.09, 0.13, 0.27, 0.19, 0.21, 0.1]<br/>class = 3>, fillcolor="#effdf5"] ;
163 -> 165 ;
166 [label=<Obligation &le; 0.38<br/>gini = 0.62<br/>samples = 0.8%<br/>value = [0.25, 0.0, 0.0, 0.5, 0.0, 0.25]<br/>class = 4>, fillcolor="#bddef6"] ;
165 -> 166 ;
167 [label=<gini = 0.0<br/>samples = 0.2%<br/>value = [0.0, 0.0, 0.0, 0.0, 0.0, 1.0]<br/>class = 6>, fillcolor="#e5399d"] ;
166 -> 167 ;
168 [label=<Obligation &le; 0.45<br/>gini = 0.44<br/>samples = 0.6%<br/>value = [0.33, 0.0, 0.0, 0.67, 0.0, 0.0]<br/>class = 4>, fillcolor="#9ccef2"] ;
166 -> 168 ;
169 [label=<gini = 0.0<br/>samples = 0.4%<br/>value = [0.0, 0.0, 0.0, 1.0, 0.0, 0.0]<br/>class = 4>, fillcolor="#399de5"] ;
168 -> 169 ;
170 [label=<gini = 0.0<br/>samples = 0.2%<br/>value = [1.0, 0.0, 0.0, 0.0, 0.0, 0.0]<br/>class = 1>, fillcolor="#e58139"] ;
168 -> 170 ;
171 [label=<Obligation &le; 0.34<br/>gini = 0.79<br/>samples = 6.9%<br/>value = [0.07, 0.14, 0.3, 0.16, 0.23, 0.09]<br/>class = 3>, fillcolor="#ecfdf3"] ;
165 -> 171 ;
172 [label=<Obligation &le; 0.33<br/>gini = 0.82<br/>samples = 2.1%<br/>value = [0.1, 0.19, 0.14, 0.24, 0.14, 0.19]<br/>class = 4>, fillcolor="#f3f9fd"] ;
171 -> 172 ;
173 [label=<Obligation &le; 0.29<br/>gini = 0.81<br/>samples = 1.6%<br/>value = [0.06, 0.25, 0.19, 0.12, 0.19, 0.19]<br/>class = 2>, fillcolor="#f7fdf0"] ;
172 -> 173 ;
174 [label=<Obligation &le; 0.28<br/>gini = 0.62<br/>samples = 0.4%<br/>value = [0.25, 0.0, 0.0, 0.0, 0.25, 0.5]<br/>class = 6>, fillcolor="#f6bdde"] ;
173 -> 174 ;
175 [label=<gini = 0.0<br/>samples = 0.1%<br/>value = [1.0, 0.0, 0.0, 0.0, 0.0, 0.0]<br/>class = 1>, fillcolor="#e58139"] ;
174 -> 175 ;
176 [label=<Age &le; 25.0<br/>gini = 0.44<br/>samples = 0.3%<br/>value = [0.0, 0.0, 0.0, 0.0, 0.33, 0.67]<br/>class = 6>, fillcolor="#f29cce"] ;
174 -> 176 ;
177 [label=<gini = 0.0<br/>samples = 0.1%<br/>value = [0.0, 0.0, 0.0, 0.0, 1.0, 0.0]<br/>class = 5>, fillcolor="#8139e5"] ;
176 -> 177 ;
178 [label=<gini = 0.0<br/>samples = 0.2%<br/>value = [0.0, 0.0, 0.0, 0.0, 0.0, 1.0]<br/>class = 6>, fillcolor="#e5399d"] ;
176 -> 178 ;
179 [label=<Obligation &le; 0.32<br/>gini = 0.76<br/>samples = 1.2%<br/>value = [0.0, 0.33, 0.25, 0.17, 0.17, 0.08]<br/>class = 2>, fillcolor="#f4fce9"] ;
173 -> 179 ;
180 [label=<Obligation &le; 0.31<br/>gini = 0.66<br/>samples = 0.8%<br/>value = [0.0, 0.5, 0.12, 0.25, 0.12, 0.0]<br/>class = 2>, fillcolor="#def6bd"] ;
179 -> 180 ;
181 [label=<Age &le; 32.5<br/>gini = 0.67<br/>samples = 0.3%<br/>value = [0.0, 0.0, 0.33, 0.33, 0.33, 0.0]<br/>class = 3>, fillcolor="#ffffff"] ;
180 -> 181 ;
182 [label=<gini = 0.0<br/>samples = 0.1%<br/>value = [0.0, 0.0, 0.0, 0.0, 1.0, 0.0]<br/>class = 5>, fillcolor="#8139e5"] ;
181 -> 182 ;
183 [label=<Obligation &le; 0.29<br/>gini = 0.5<br/>samples = 0.2%<br/>value = [0.0, 0.0, 0.5, 0.5, 0.0, 0.0]<br/>class = 3>, fillcolor="#ffffff"] ;
181 -> 183 ;
184 [label=<gini = 0.0<br/>samples = 0.1%<br/>value = [0.0, 0.0, 0.0, 1.0, 0.0, 0.0]<br/>class = 4>, fillcolor="#399de5"] ;
183 -> 184 ;
185 [label=<gini = 0.0<br/>samples = 0.1%<br/>value = [0.0, 0.0, 1.0, 0.0, 0.0, 0.0]<br/>class = 3>, fillcolor="#39e581"] ;
183 -> 185 ;
186 [label=<Obligation &le; 0.32<br/>gini = 0.32<br/>samples = 0.5%<br/>value = [0.0, 0.8, 0.0, 0.2, 0.0, 0.0]<br/>class = 2>, fillcolor="#b6ec6a"] ;
180 -> 186 ;
187 [label=<gini = 0.0<br/>samples = 0.3%<br/>value = [0.0, 1.0, 0.0, 0.0, 0.0, 0.0]<br/>class = 2>, fillcolor="#9de539"] ;
186 -> 187 ;
188 [label=<Obligation &le; 0.32<br/>gini = 0.5<br/>samples = 0.2%<br/>value = [0.0, 0.5, 0.0, 0.5, 0.0, 0.0]<br/>class = 2>, fillcolor="#ffffff"] ;
186 -> 188 ;
189 [label=<gini = 0.0<br/>samples = 0.1%<br/>value = [0.0, 0.0, 0.0, 1.0, 0.0, 0.0]<br/>class = 4>, fillcolor="#399de5"] ;
188 -> 189 ;
190 [label=<gini = 0.0<br/>samples = 0.1%<br/>value = [0.0, 1.0, 0.0, 0.0, 0.0, 0.0]<br/>class = 2>, fillcolor="#9de539"] ;
188 -> 190 ;
191 [label=<Obligation &le; 0.33<br/>gini = 0.62<br/>samples = 0.4%<br/>value = [0.0, 0.0, 0.5, 0.0, 0.25, 0.25]<br/>class = 3>, fillcolor="#bdf6d5"] ;
179 -> 191 ;
192 [label=<gini = 0.0<br/>samples = 0.2%<br/>value = [0.0, 0.0, 1.0, 0.0, 0.0, 0.0]<br/>class = 3>, fillcolor="#39e581"] ;
191 -> 192 ;
193 [label=<Obligation &le; 0.33<br/>gini = 0.5<br/>samples = 0.2%<br/>value = [0.0, 0.0, 0.0, 0.0, 0.5, 0.5]<br/>class = 5>, fillcolor="#ffffff"] ;
191 -> 193 ;
194 [label=<gini = 0.0<br/>samples = 0.1%<br/>value = [0.0, 0.0, 0.0, 0.0, 0.0, 1.0]<br/>class = 6>, fillcolor="#e5399d"] ;
193 -> 194 ;
195 [label=<gini = 0.0<br/>samples = 0.1%<br/>value = [0.0, 0.0, 0.0, 0.0, 1.0, 0.0]<br/>class = 5>, fillcolor="#8139e5"] ;
193 -> 195 ;
196 [label=<Age &le; 26.5<br/>gini = 0.56<br/>samples = 0.5%<br/>value = [0.2, 0.0, 0.0, 0.6, 0.0, 0.2]<br/>class = 4>, fillcolor="#9ccef2"] ;
172 -> 196 ;
197 [label=<Age &le; 24.0<br/>gini = 0.5<br/>samples = 0.2%<br/>value = [0.5, 0.0, 0.0, 0.0, 0.0, 0.5]<br/>class = 1>, fillcolor="#ffffff"] ;
196 -> 197 ;
198 [label=<gini = 0.0<br/>samples = 0.1%<br/>value = [1.0, 0.0, 0.0, 0.0, 0.0, 0.0]<br/>class = 1>, fillcolor="#e58139"] ;
197 -> 198 ;
199 [label=<gini = 0.0<br/>samples = 0.1%<br/>value = [0.0, 0.0, 0.0, 0.0, 0.0, 1.0]<br/>class = 6>, fillcolor="#e5399d"] ;
197 -> 199 ;
200 [label=<gini = 0.0<br/>samples = 0.3%<br/>value = [0.0, 0.0, 0.0, 1.0, 0.0, 0.0]<br/>class = 4>, fillcolor="#399de5"] ;
196 -> 200 ;
201 [label=<Obligation &le; 0.4<br/>gini = 0.75<br/>samples = 4.8%<br/>value = [0.06, 0.12, 0.38, 0.12, 0.27, 0.04]<br/>class = 3>, fillcolor="#e3fbed"] ;
171 -> 201 ;
202 [label=<Obligation &le; 0.38<br/>gini = 0.62<br/>samples = 2.1%<br/>value = [0.1, 0.0, 0.48, 0.0, 0.38, 0.05]<br/>class = 3>, fillcolor="#e1fbec"] ;
201 -> 202 ;
203 [label=<Obligation &le; 0.37<br/>gini = 0.65<br/>samples = 1.5%<br/>value = [0.13, 0.0, 0.33, 0.0, 0.47, 0.07]<br/>class = 5>, fillcolor="#e6d7fa"] ;
202 -> 203 ;
204 [label=<Age &le; 31.0<br/>gini = 0.5<br/>samples = 1.1%<br/>value = [0.0, 0.0, 0.45, 0.0, 0.55, 0.0]<br/>class = 5>, fillcolor="#eadefb"] ;
203 -> 204 ;
205 [label=<Obligation &le; 0.35<br/>gini = 0.32<br/>samples = 0.5%<br/>value = [0.0, 0.0, 0.2, 0.0, 0.8, 0.0]<br/>class = 5>, fillcolor="#a06aec"] ;
204 -> 205 ;
206 [label=<gini = 0.0<br/>samples = 0.1%<br/>value = [0.0, 0.0, 1.0, 0.0, 0.0, 0.0]<br/>class = 3>, fillcolor="#39e581"] ;
205 -> 206 ;
207 [label=<gini = 0.0<br/>samples = 0.4%<br/>value = [0.0, 0.0, 0.0, 0.0, 1.0, 0.0]<br/>class = 5>, fillcolor="#8139e5"] ;
205 -> 207 ;
208 [label=<Age &le; 35.5<br/>gini = 0.44<br/>samples = 0.6%<br/>value = [0.0, 0.0, 0.67, 0.0, 0.33, 0.0]<br/>class = 3>, fillcolor="#9cf2c0"] ;
204 -> 208 ;
209 [label=<Obligation &le; 0.34<br/>gini = 0.32<br/>samples = 0.5%<br/>value = [0.0, 0.0, 0.8, 0.0, 0.2, 0.0]<br/>class = 3>, fillcolor="#6aeca0"] ;
208 -> 209 ;
210 [label=<gini = 0.0<br/>samples = 0.1%<br/>value = [0.0, 0.0, 0.0, 0.0, 1.0, 0.0]<br/>class = 5>, fillcolor="#8139e5"] ;
209 -> 210 ;
211 [label=<gini = 0.0<br/>samples = 0.4%<br/>value = [0.0, 0.0, 1.0, 0.0, 0.0, 0.0]<br/>class = 3>, fillcolor="#39e581"] ;
209 -> 211 ;
212 [label=<gini = 0.0<br/>samples = 0.1%<br/>value = [0.0, 0.0, 0.0, 0.0, 1.0, 0.0]<br/>class = 5>, fillcolor="#8139e5"] ;
208 -> 212 ;
213 [label=<Age &le; 36.0<br/>gini = 0.62<br/>samples = 0.4%<br/>value = [0.5, 0.0, 0.0, 0.0, 0.25, 0.25]<br/>class = 1>, fillcolor="#f6d5bd"] ;
203 -> 213 ;
214 [label=<Obligation &le; 0.38<br/>gini = 0.44<br/>samples = 0.3%<br/>value = [0.67, 0.0, 0.0, 0.0, 0.33, 0.0]<br/>class = 1>, fillcolor="#f2c09c"] ;
213 -> 214 ;
215 [label=<gini = 0.0<br/>samples = 0.2%<br/>value = [1.0, 0.0, 0.0, 0.0, 0.0, 0.0]<br/>class = 1>, fillcolor="#e58139"] ;
214 -> 215 ;
216 [label=<gini = 0.0<br/>samples = 0.1%<br/>value = [0.0, 0.0, 0.0, 0.0, 1.0, 0.0]<br/>class = 5>, fillcolor="#8139e5"] ;
214 -> 216 ;
217 [label=<gini = 0.0<br/>samples = 0.1%<br/>value = [0.0, 0.0, 0.0, 0.0, 0.0, 1.0]<br/>class = 6>, fillcolor="#e5399d"] ;
213 -> 217 ;
218 [label=<Obligation &le; 0.39<br/>gini = 0.28<br/>samples = 0.6%<br/>value = [0.0, 0.0, 0.83, 0.0, 0.17, 0.0]<br/>class = 3>, fillcolor="#61ea9a"] ;
202 -> 218 ;
219 [label=<gini = 0.0<br/>samples = 0.5%<br/>value = [0.0, 0.0, 1.0, 0.0, 0.0, 0.0]<br/>class = 3>, fillcolor="#39e581"] ;
218 -> 219 ;
220 [label=<gini = 0.0<br/>samples = 0.1%<br/>value = [0.0, 0.0, 0.0, 0.0, 1.0, 0.0]<br/>class = 5>, fillcolor="#8139e5"] ;
218 -> 220 ;
221 [label=<Age &le; 31.0<br/>gini = 0.78<br/>samples = 2.7%<br/>value = [0.04, 0.22, 0.3, 0.22, 0.19, 0.04]<br/>class = 3>, fillcolor="#ecfdf3"] ;
201 -> 221 ;
222 [label=<Age &le; 23.5<br/>gini = 0.66<br/>samples = 1.3%<br/>value = [0.0, 0.31, 0.46, 0.15, 0.08, 0.0]<br/>class = 3>, fillcolor="#d3f9e3"] ;
221 -> 222 ;
223 [label=<Obligation &le; 0.43<br/>gini = 0.67<br/>samples = 0.3%<br/>value = [0.0, 0.0, 0.33, 0.33, 0.33, 0.0]<br/>class = 3>, fillcolor="#ffffff"] ;
222 -> 223 ;
224 [label=<gini = 0.0<br/>samples = 0.1%<br/>value = [0.0, 0.0, 0.0, 1.0, 0.0, 0.0]<br/>class = 4>, fillcolor="#399de5"] ;
223 -> 224 ;
225 [label=<Obligation &le; 0.43<br/>gini = 0.5<br/>samples = 0.2%<br/>value = [0.0, 0.0, 0.5, 0.0, 0.5, 0.0]<br/>class = 3>, fillcolor="#ffffff"] ;
223 -> 225 ;
226 [label=<gini = 0.0<br/>samples = 0.1%<br/>value = [0.0, 0.0, 0.0, 0.0, 1.0, 0.0]<br/>class = 5>, fillcolor="#8139e5"] ;
225 -> 226 ;
227 [label=<gini = 0.0<br/>samples = 0.1%<br/>value = [0.0, 0.0, 1.0, 0.0, 0.0, 0.0]<br/>class = 3>, fillcolor="#39e581"] ;
225 -> 227 ;
228 [label=<Obligation &le; 0.48<br/>gini = 0.58<br/>samples = 1.0%<br/>value = [0.0, 0.4, 0.5, 0.1, 0.0, 0.0]<br/>class = 3>, fillcolor="#defbea"] ;
222 -> 228 ;
229 [label=<Obligation &le; 0.45<br/>gini = 0.5<br/>samples = 0.8%<br/>value = [0.0, 0.5, 0.5, 0.0, 0.0, 0.0]<br/>class = 2>, fillcolor="#ffffff"] ;
228 -> 229 ;
230 [label=<Age &le; 29.0<br/>gini = 0.44<br/>samples = 0.6%<br/>value = [0.0, 0.33, 0.67, 0.0, 0.0, 0.0]<br/>class = 3>, fillcolor="#9cf2c0"] ;
229 -> 230 ;
231 [label=<Age &le; 25.5<br/>gini = 0.32<br/>samples = 0.5%<br/>value = [0.0, 0.2, 0.8, 0.0, 0.0, 0.0]<br/>class = 3>, fillcolor="#6aeca0"] ;
230 -> 231 ;
232 [label=<Obligation &le; 0.41<br/>gini = 0.44<br/>samples = 0.3%<br/>value = [0.0, 0.33, 0.67, 0.0, 0.0, 0.0]<br/>class = 3>, fillcolor="#9cf2c0"] ;
231 -> 232 ;
233 [label=<gini = 0.0<br/>samples = 0.2%<br/>value = [0.0, 0.0, 1.0, 0.0, 0.0, 0.0]<br/>class = 3>, fillcolor="#39e581"] ;
232 -> 233 ;
234 [label=<gini = 0.0<br/>samples = 0.1%<br/>value = [0.0, 1.0, 0.0, 0.0, 0.0, 0.0]<br/>class = 2>, fillcolor="#9de539"] ;
232 -> 234 ;
235 [label=<gini = 0.0<br/>samples = 0.2%<br/>value = [0.0, 0.0, 1.0, 0.0, 0.0, 0.0]<br/>class = 3>, fillcolor="#39e581"] ;
231 -> 235 ;
236 [label=<gini = 0.0<br/>samples = 0.1%<br/>value = [0.0, 1.0, 0.0, 0.0, 0.0, 0.0]<br/>class = 2>, fillcolor="#9de539"] ;
230 -> 236 ;
237 [label=<gini = 0.0<br/>samples = 0.2%<br/>value = [0.0, 1.0, 0.0, 0.0, 0.0, 0.0]<br/>class = 2>, fillcolor="#9de539"] ;
229 -> 237 ;
238 [label=<Obligation &le; 0.48<br/>gini = 0.5<br/>samples = 0.2%<br/>value = [0.0, 0.0, 0.5, 0.5, 0.0, 0.0]<br/>class = 3>, fillcolor="#ffffff"] ;
228 -> 238 ;
239 [label=<gini = 0.0<br/>samples = 0.1%<br/>value = [0.0, 0.0, 0.0, 1.0, 0.0, 0.0]<br/>class = 4>, fillcolor="#399de5"] ;
238 -> 239 ;
240 [label=<gini = 0.0<br/>samples = 0.1%<br/>value = [0.0, 0.0, 1.0, 0.0, 0.0, 0.0]<br/>class = 3>, fillcolor="#39e581"] ;
238 -> 240 ;
241 [label=<Obligation &le; 0.47<br/>gini = 0.79<br/>samples = 1.4%<br/>value = [0.07, 0.14, 0.14, 0.29, 0.29, 0.07]<br/>class = 4>, fillcolor="#ffffff"] ;
221 -> 241 ;
242 [label=<Age &le; 33.5<br/>gini = 0.74<br/>samples = 1.0%<br/>value = [0.1, 0.2, 0.0, 0.4, 0.2, 0.1]<br/>class = 4>, fillcolor="#cee6f8"] ;
241 -> 242 ;
243 [label=<gini = 0.0<br/>samples = 0.2%<br/>value = [0.0, 0.0, 0.0, 1.0, 0.0, 0.0]<br/>class = 4>, fillcolor="#399de5"] ;
242 -> 243 ;
244 [label=<Obligation &le; 0.42<br/>gini = 0.78<br/>samples = 0.8%<br/>value = [0.12, 0.25, 0.0, 0.25, 0.25, 0.12]<br/>class = 2>, fillcolor="#ffffff"] ;
242 -> 244 ;
245 [label=<Obligation &le; 0.41<br/>gini = 0.44<br/>samples = 0.3%<br/>value = [0.0, 0.33, 0.0, 0.0, 0.67, 0.0]<br/>class = 5>, fillcolor="#c09cf2"] ;
244 -> 245 ;
246 [label=<gini = 0.0<br/>samples = 0.1%<br/>value = [0.0, 1.0, 0.0, 0.0, 0.0, 0.0]<br/>class = 2>, fillcolor="#9de539"] ;
245 -> 246 ;
247 [label=<gini = 0.0<br/>samples = 0.2%<br/>value = [0.0, 0.0, 0.0, 0.0, 1.0, 0.0]<br/>class = 5>, fillcolor="#8139e5"] ;
245 -> 247 ;
248 [label=<Obligation &le; 0.43<br/>gini = 0.72<br/>samples = 0.5%<br/>value = [0.2, 0.2, 0.0, 0.4, 0.0, 0.2]<br/>class = 4>, fillcolor="#cee6f8"] ;
244 -> 248 ;
249 [label=<gini = 0.0<br/>samples = 0.1%<br/>value = [0.0, 0.0, 0.0, 1.0, 0.0, 0.0]<br/>class = 4>, fillcolor="#399de5"] ;
248 -> 249 ;
250 [label=<Age &le; 36.5<br/>gini = 0.75<br/>samples = 0.4%<br/>value = [0.25, 0.25, 0.0, 0.25, 0.0, 0.25]<br/>class = 1>, fillcolor="#ffffff"] ;
248 -> 250 ;
251 [label=<Obligation &le; 0.45<br/>gini = 0.5<br/>samples = 0.2%<br/>value = [0.0, 0.0, 0.0, 0.5, 0.0, 0.5]<br/>class = 4>, fillcolor="#ffffff"] ;
250 -> 251 ;
252 [label=<gini = 0.0<br/>samples = 0.1%<br/>value = [0.0, 0.0, 0.0, 0.0, 0.0, 1.0]<br/>class = 6>, fillcolor="#e5399d"] ;
251 -> 252 ;
253 [label=<gini = 0.0<br/>samples = 0.1%<br/>value = [0.0, 0.0, 0.0, 1.0, 0.0, 0.0]<br/>class = 4>, fillcolor="#399de5"] ;
251 -> 253 ;
254 [label=<Obligation &le; 0.44<br/>gini = 0.5<br/>samples = 0.2%<br/>value = [0.5, 0.5, 0.0, 0.0, 0.0, 0.0]<br/>class = 1>, fillcolor="#ffffff"] ;
250 -> 254 ;
255 [label=<gini = 0.0<br/>samples = 0.1%<br/>value = [0.0, 1.0, 0.0, 0.0, 0.0, 0.0]<br/>class = 2>, fillcolor="#9de539"] ;
254 -> 255 ;
256 [label=<gini = 0.0<br/>samples = 0.1%<br/>value = [1.0, 0.0, 0.0, 0.0, 0.0, 0.0]<br/>class = 1>, fillcolor="#e58139"] ;
254 -> 256 ;
257 [label=<Age &le; 37.0<br/>gini = 0.5<br/>samples = 0.4%<br/>value = [0.0, 0.0, 0.5, 0.0, 0.5, 0.0]<br/>class = 3>, fillcolor="#ffffff"] ;
241 -> 257 ;
258 [label=<Age &le; 35.0<br/>gini = 0.44<br/>samples = 0.3%<br/>value = [0.0, 0.0, 0.33, 0.0, 0.67, 0.0]<br/>class = 5>, fillcolor="#c09cf2"] ;
257 -> 258 ;
259 [label=<Obligation &le; 0.47<br/>gini = 0.5<br/>samples = 0.2%<br/>value = [0.0, 0.0, 0.5, 0.0, 0.5, 0.0]<br/>class = 3>, fillcolor="#ffffff"] ;
258 -> 259 ;
260 [label=<gini = 0.0<br/>samples = 0.1%<br/>value = [0.0, 0.0, 0.0, 0.0, 1.0, 0.0]<br/>class = 5>, fillcolor="#8139e5"] ;
259 -> 260 ;
261 [label=<gini = 0.0<br/>samples = 0.1%<br/>value = [0.0, 0.0, 1.0, 0.0, 0.0, 0.0]<br/>class = 3>, fillcolor="#39e581"] ;
259 -> 261 ;
262 [label=<gini = 0.0<br/>samples = 0.1%<br/>value = [0.0, 0.0, 0.0, 0.0, 1.0, 0.0]<br/>class = 5>, fillcolor="#8139e5"] ;
258 -> 262 ;
263 [label=<gini = 0.0<br/>samples = 0.1%<br/>value = [0.0, 0.0, 1.0, 0.0, 0.0, 0.0]<br/>class = 3>, fillcolor="#39e581"] ;
257 -> 263 ;
264 [label=<Obligation &le; 0.46<br/>gini = 0.38<br/>samples = 0.4%<br/>value = [0.0, 0.0, 0.25, 0.0, 0.0, 0.75]<br/>class = 6>, fillcolor="#ee7bbe"] ;
160 -> 264 ;
265 [label=<gini = 0.0<br/>samples = 0.3%<br/>value = [0.0, 0.0, 0.0, 0.0, 0.0, 1.0]<br/>class = 6>, fillcolor="#e5399d"] ;
264 -> 265 ;
266 [label=<gini = 0.0<br/>samples = 0.1%<br/>value = [0.0, 0.0, 1.0, 0.0, 0.0, 0.0]<br/>class = 3>, fillcolor="#39e581"] ;
264 -> 266 ;
267 [label=<Obligation &le; 0.57<br/>gini = 0.8<br/>samples = 6.8%<br/>value = [0.15, 0.19, 0.1, 0.12, 0.13, 0.31]<br/>class = 6>, fillcolor="#fbe2f1"] ;
3 -> 267 ;
268 [label=<Age &le; 36.5<br/>gini = 0.71<br/>samples = 2.9%<br/>value = [0.21, 0.17, 0.0, 0.14, 0.03, 0.45]<br/>class = 6>, fillcolor="#f7c3e1"] ;
267 -> 268 ;
269 [label=<Age &le; 22.5<br/>gini = 0.62<br/>samples = 2.1%<br/>value = [0.1, 0.19, 0.0, 0.1, 0.05, 0.57]<br/>class = 6>, fillcolor="#f3a2d1"] ;
268 -> 269 ;
270 [label=<Obligation &le; 0.54<br/>gini = 0.28<br/>samples = 0.6%<br/>value = [0.0, 0.0, 0.0, 0.17, 0.0, 0.83]<br/>class = 6>, fillcolor="#ea61b1"] ;
269 -> 270 ;
271 [label=<gini = 0.0<br/>samples = 0.4%<br/>value = [0.0, 0.0, 0.0, 0.0, 0.0, 1.0]<br/>class = 6>, fillcolor="#e5399d"] ;
270 -> 271 ;
272 [label=<Obligation &le; 0.55<br/>gini = 0.5<br/>samples = 0.2%<br/>value = [0.0, 0.0, 0.0, 0.5, 0.0, 0.5]<br/>class = 4>, fillcolor="#ffffff"] ;
270 -> 272 ;
273 [label=<gini = 0.0<br/>samples = 0.1%<br/>value = [0.0, 0.0, 0.0, 1.0, 0.0, 0.0]<br/>class = 4>, fillcolor="#399de5"] ;
272 -> 273 ;
274 [label=<gini = 0.0<br/>samples = 0.1%<br/>value = [0.0, 0.0, 0.0, 0.0, 0.0, 1.0]<br/>class = 6>, fillcolor="#e5399d"] ;
272 -> 274 ;
275 [label=<Age &le; 29.5<br/>gini = 0.68<br/>samples = 1.5%<br/>value = [0.13, 0.27, 0.0, 0.07, 0.07, 0.47]<br/>class = 6>, fillcolor="#f8c9e4"] ;
269 -> 275 ;
276 [label=<Obligation &le; 0.53<br/>gini = 0.78<br/>samples = 0.8%<br/>value = [0.25, 0.25, 0.0, 0.12, 0.12, 0.25]<br/>class = 1>, fillcolor="#ffffff"] ;
275 -> 276 ;
277 [label=<Age &le; 24.0<br/>gini = 0.5<br/>samples = 0.2%<br/>value = [0.0, 0.0, 0.0, 0.5, 0.0, 0.5]<br/>class = 4>, fillcolor="#ffffff"] ;
276 -> 277 ;
278 [label=<gini = 0.0<br/>samples = 0.1%<br/>value = [0.0, 0.0, 0.0, 0.0, 0.0, 1.0]<br/>class = 6>, fillcolor="#e5399d"] ;
277 -> 278 ;
279 [label=<gini = 0.0<br/>samples = 0.1%<br/>value = [0.0, 0.0, 0.0, 1.0, 0.0, 0.0]<br/>class = 4>, fillcolor="#399de5"] ;
277 -> 279 ;
280 [label=<Obligation &le; 0.56<br/>gini = 0.72<br/>samples = 0.6%<br/>value = [0.33, 0.33, 0.0, 0.0, 0.17, 0.17]<br/>class = 1>, fillcolor="#ffffff"] ;
276 -> 280 ;
281 [label=<Age &le; 24.5<br/>gini = 0.5<br/>samples = 0.4%<br/>value = [0.5, 0.5, 0.0, 0.0, 0.0, 0.0]<br/>class = 1>, fillcolor="#ffffff"] ;
280 -> 281 ;
282 [label=<gini = 0.0<br/>samples = 0.1%<br/>value = [1.0, 0.0, 0.0, 0.0, 0.0, 0.0]<br/>class = 1>, fillcolor="#e58139"] ;
281 -> 282 ;
283 [label=<Age &le; 28.0<br/>gini = 0.44<br/>samples = 0.3%<br/>value = [0.33, 0.67, 0.0, 0.0, 0.0, 0.0]<br/>class = 2>, fillcolor="#cef29c"] ;
281 -> 283 ;
284 [label=<gini = 0.0<br/>samples = 0.2%<br/>value = [0.0, 1.0, 0.0, 0.0, 0.0, 0.0]<br/>class = 2>, fillcolor="#9de539"] ;
283 -> 284 ;
285 [label=<gini = 0.0<br/>samples = 0.1%<br/>value = [1.0, 0.0, 0.0, 0.0, 0.0, 0.0]<br/>class = 1>, fillcolor="#e58139"] ;
283 -> 285 ;
286 [label=<Age &le; 27.5<br/>gini = 0.5<br/>samples = 0.2%<br/>value = [0.0, 0.0, 0.0, 0.0, 0.5, 0.5]<br/>class = 5>, fillcolor="#ffffff"] ;
280 -> 286 ;
287 [label=<gini = 0.0<br/>samples = 0.1%<br/>value = [0.0, 0.0, 0.0, 0.0, 0.0, 1.0]<br/>class = 6>, fillcolor="#e5399d"] ;
286 -> 287 ;
288 [label=<gini = 0.0<br/>samples = 0.1%<br/>value = [0.0, 0.0, 0.0, 0.0, 1.0, 0.0]<br/>class = 5>, fillcolor="#8139e5"] ;
286 -> 288 ;
289 [label=<Obligation &le; 0.49<br/>gini = 0.41<br/>samples = 0.7%<br/>value = [0.0, 0.29, 0.0, 0.0, 0.0, 0.71]<br/>class = 6>, fillcolor="#ef88c4"] ;
275 -> 289 ;
290 [label=<gini = 0.0<br/>samples = 0.2%<br/>value = [0.0, 0.0, 0.0, 0.0, 0.0, 1.0]<br/>class = 6>, fillcolor="#e5399d"] ;
289 -> 290 ;
291 [label=<Obligation &le; 0.54<br/>gini = 0.48<br/>samples = 0.5%<br/>value = [0.0, 0.4, 0.0, 0.0, 0.0, 0.6]<br/>class = 6>, fillcolor="#f6bdde"] ;
289 -> 291 ;
292 [label=<Obligation &le; 0.51<br/>gini = 0.44<br/>samples = 0.3%<br/>value = [0.0, 0.67, 0.0, 0.0, 0.0, 0.33]<br/>class = 2>, fillcolor="#cef29c"] ;
291 -> 292 ;
293 [label=<gini = 0.0<br/>samples = 0.1%<br/>value = [0.0, 1.0, 0.0, 0.0, 0.0, 0.0]<br/>class = 2>, fillcolor="#9de539"] ;
292 -> 293 ;
294 [label=<Obligation &le; 0.53<br/>gini = 0.5<br/>samples = 0.2%<br/>value = [0.0, 0.5, 0.0, 0.0, 0.0, 0.5]<br/>class = 2>, fillcolor="#ffffff"] ;
292 -> 294 ;
295 [label=<gini = 0.0<br/>samples = 0.1%<br/>value = [0.0, 0.0, 0.0, 0.0, 0.0, 1.0]<br/>class = 6>, fillcolor="#e5399d"] ;
294 -> 295 ;
296 [label=<gini = 0.0<br/>samples = 0.1%<br/>value = [0.0, 1.0, 0.0, 0.0, 0.0, 0.0]<br/>class = 2>, fillcolor="#9de539"] ;
294 -> 296 ;
297 [label=<gini = 0.0<br/>samples = 0.2%<br/>value = [0.0, 0.0, 0.0, 0.0, 0.0, 1.0]<br/>class = 6>, fillcolor="#e5399d"] ;
291 -> 297 ;
298 [label=<Age &le; 38.5<br/>gini = 0.66<br/>samples = 0.8%<br/>value = [0.5, 0.12, 0.0, 0.25, 0.0, 0.12]<br/>class = 1>, fillcolor="#f6d5bd"] ;
268 -> 298 ;
299 [label=<Obligation &le; 0.55<br/>gini = 0.32<br/>samples = 0.5%<br/>value = [0.8, 0.2, 0.0, 0.0, 0.0, 0.0]<br/>class = 1>, fillcolor="#eca06a"] ;
298 -> 299 ;
300 [label=<gini = 0.0<br/>samples = 0.3%<br/>value = [1.0, 0.0, 0.0, 0.0, 0.0, 0.0]<br/>class = 1>, fillcolor="#e58139"] ;
299 -> 300 ;
301 [label=<Obligation &le; 0.56<br/>gini = 0.5<br/>samples = 0.2%<br/>value = [0.5, 0.5, 0.0, 0.0, 0.0, 0.0]<br/>class = 1>, fillcolor="#ffffff"] ;
299 -> 301 ;
302 [label=<gini = 0.0<br/>samples = 0.1%<br/>value = [0.0, 1.0, 0.0, 0.0, 0.0, 0.0]<br/>class = 2>, fillcolor="#9de539"] ;
301 -> 302 ;
303 [label=<gini = 0.0<br/>samples = 0.1%<br/>value = [1.0, 0.0, 0.0, 0.0, 0.0, 0.0]<br/>class = 1>, fillcolor="#e58139"] ;
301 -> 303 ;
304 [label=<Age &le; 39.5<br/>gini = 0.44<br/>samples = 0.3%<br/>value = [0.0, 0.0, 0.0, 0.67, 0.0, 0.33]<br/>class = 4>, fillcolor="#9ccef2"] ;
298 -> 304 ;
305 [label=<gini = 0.0<br/>samples = 0.1%<br/>value = [0.0, 0.0, 0.0, 0.0, 0.0, 1.0]<br/>class = 6>, fillcolor="#e5399d"] ;
304 -> 305 ;
306 [label=<gini = 0.0<br/>samples = 0.2%<br/>value = [0.0, 0.0, 0.0, 1.0, 0.0, 0.0]<br/>class = 4>, fillcolor="#399de5"] ;
304 -> 306 ;
307 [label=<Obligation &le; 0.61<br/>gini = 0.82<br/>samples = 3.9%<br/>value = [0.1, 0.21, 0.18, 0.1, 0.21, 0.21]<br/>class = 2>, fillcolor="#ffffff"] ;
267 -> 307 ;
308 [label=<Age &le; 32.5<br/>gini = 0.81<br/>samples = 2.2%<br/>value = [0.18, 0.18, 0.14, 0.14, 0.27, 0.09]<br/>class = 5>, fillcolor="#f1e9fc"] ;
307 -> 308 ;
309 [label=<Age &le; 28.5<br/>gini = 0.76<br/>samples = 1.5%<br/>value = [0.2, 0.07, 0.2, 0.2, 0.33, 0.0]<br/>class = 5>, fillcolor="#eadefb"] ;
308 -> 309 ;
310 [label=<Obligation &le; 0.59<br/>gini = 0.76<br/>samples = 1.0%<br/>value = [0.3, 0.1, 0.1, 0.3, 0.2, 0.0]<br/>class = 1>, fillcolor="#ffffff"] ;
309 -> 310 ;
311 [label=<Obligation &le; 0.58<br/>gini = 0.44<br/>samples = 0.3%<br/>value = [0.67, 0.0, 0.33, 0.0, 0.0, 0.0]<br/>class = 1>, fillcolor="#f2c09c"] ;
310 -> 311 ;
312 [label=<gini = 0.0<br/>samples = 0.1%<br/>value = [0.0, 0.0, 1.0, 0.0, 0.0, 0.0]<br/>class = 3>, fillcolor="#39e581"] ;
311 -> 312 ;
313 [label=<gini = 0.0<br/>samples = 0.2%<br/>value = [1.0, 0.0, 0.0, 0.0, 0.0, 0.0]<br/>class = 1>, fillcolor="#e58139"] ;
311 -> 313 ;
314 [label=<Age &le; 26.5<br/>gini = 0.69<br/>samples = 0.7%<br/>value = [0.14, 0.14, 0.0, 0.43, 0.29, 0.0]<br/>class = 4>, fillcolor="#d7ebfa"] ;
310 -> 314 ;
315 [label=<Age &le; 25.5<br/>gini = 0.72<br/>samples = 0.5%<br/>value = [0.2, 0.2, 0.0, 0.2, 0.4, 0.0]<br/>class = 5>, fillcolor="#e0cef8"] ;
314 -> 315 ;
316 [label=<Obligation &le; 0.59<br/>gini = 0.62<br/>samples = 0.4%<br/>value = [0.0, 0.25, 0.0, 0.25, 0.5, 0.0]<br/>class = 5>, fillcolor="#d5bdf6"] ;
315 -> 316 ;
317 [label=<gini = 0.0<br/>samples = 0.1%<br/>value = [0.0, 0.0, 0.0, 0.0, 1.0, 0.0]<br/>class = 5>, fillcolor="#8139e5"] ;
316 -> 317 ;
318 [label=<Age &le; 22.0<br/>gini = 0.67<br/>samples = 0.3%<br/>value = [0.0, 0.33, 0.0, 0.33, 0.33, 0.0]<br/>class = 2>, fillcolor="#ffffff"] ;
316 -> 318 ;
319 [label=<gini = 0.0<br/>samples = 0.1%<br/>value = [0.0, 1.0, 0.0, 0.0, 0.0, 0.0]<br/>class = 2>, fillcolor="#9de539"] ;
318 -> 319 ;
320 [label=<Obligation &le; 0.61<br/>gini = 0.5<br/>samples = 0.2%<br/>value = [0.0, 0.0, 0.0, 0.5, 0.5, 0.0]<br/>class = 4>, fillcolor="#ffffff"] ;
318 -> 320 ;
321 [label=<gini = 0.0<br/>samples = 0.1%<br/>value = [0.0, 0.0, 0.0, 1.0, 0.0, 0.0]<br/>class = 4>, fillcolor="#399de5"] ;
320 -> 321 ;
322 [label=<gini = 0.0<br/>samples = 0.1%<br/>value = [0.0, 0.0, 0.0, 0.0, 1.0, 0.0]<br/>class = 5>, fillcolor="#8139e5"] ;
320 -> 322 ;
323 [label=<gini = 0.0<br/>samples = 0.1%<br/>value = [1.0, 0.0, 0.0, 0.0, 0.0, 0.0]<br/>class = 1>, fillcolor="#e58139"] ;
315 -> 323 ;
324 [label=<gini = 0.0<br/>samples = 0.2%<br/>value = [0.0, 0.0, 0.0, 1.0, 0.0, 0.0]<br/>class = 4>, fillcolor="#399de5"] ;
314 -> 324 ;
325 [label=<Obligation &le; 0.6<br/>gini = 0.48<br/>samples = 0.5%<br/>value = [0.0, 0.0, 0.4, 0.0, 0.6, 0.0]<br/>class = 5>, fillcolor="#d5bdf6"] ;
309 -> 325 ;
326 [label=<Obligation &le; 0.59<br/>gini = 0.44<br/>samples = 0.3%<br/>value = [0.0, 0.0, 0.67, 0.0, 0.33, 0.0]<br/>class = 3>, fillcolor="#9cf2c0"] ;
325 -> 326 ;
327 [label=<gini = 0.0<br/>samples = 0.1%<br/>value = [0.0, 0.0, 0.0, 0.0, 1.0, 0.0]<br/>class = 5>, fillcolor="#8139e5"] ;
326 -> 327 ;
328 [label=<gini = 0.0<br/>samples = 0.2%<br/>value = [0.0, 0.0, 1.0, 0.0, 0.0, 0.0]<br/>class = 3>, fillcolor="#39e581"] ;
326 -> 328 ;
329 [label=<gini = 0.0<br/>samples = 0.2%<br/>value = [0.0, 0.0, 0.0, 0.0, 1.0, 0.0]<br/>class = 5>, fillcolor="#8139e5"] ;
325 -> 329 ;
330 [label=<Obligation &le; 0.59<br/>gini = 0.69<br/>samples = 0.7%<br/>value = [0.14, 0.43, 0.0, 0.0, 0.14, 0.29]<br/>class = 2>, fillcolor="#ebfad7"] ;
308 -> 330 ;
331 [label=<gini = 0.0<br/>samples = 0.2%<br/>value = [0.0, 1.0, 0.0, 0.0, 0.0, 0.0]<br/>class = 2>, fillcolor="#9de539"] ;
330 -> 331 ;
332 [label=<Obligation &le; 0.6<br/>gini = 0.72<br/>samples = 0.5%<br/>value = [0.2, 0.2, 0.0, 0.0, 0.2, 0.4]<br/>class = 6>, fillcolor="#f8cee6"] ;
330 -> 332 ;
333 [label=<Obligation &le; 0.6<br/>gini = 0.44<br/>samples = 0.3%<br/>value = [0.0, 0.0, 0.0, 0.0, 0.33, 0.67]<br/>class = 6>, fillcolor="#f29cce"] ;
332 -> 333 ;
334 [label=<gini = 0.0<br/>samples = 0.1%<br/>value = [0.0, 0.0, 0.0, 0.0, 1.0, 0.0]<br/>class = 5>, fillcolor="#8139e5"] ;
333 -> 334 ;
335 [label=<gini = 0.0<br/>samples = 0.2%<br/>value = [0.0, 0.0, 0.0, 0.0, 0.0, 1.0]<br/>class = 6>, fillcolor="#e5399d"] ;
333 -> 335 ;
336 [label=<Obligation &le; 0.6<br/>gini = 0.5<br/>samples = 0.2%<br/>value = [0.5, 0.5, 0.0, 0.0, 0.0, 0.0]<br/>class = 1>, fillcolor="#ffffff"] ;
332 -> 336 ;
337 [label=<gini = 0.0<br/>samples = 0.1%<br/>value = [1.0, 0.0, 0.0, 0.0, 0.0, 0.0]<br/>class = 1>, fillcolor="#e58139"] ;
336 -> 337 ;
338 [label=<gini = 0.0<br/>samples = 0.1%<br/>value = [0.0, 1.0, 0.0, 0.0, 0.0, 0.0]<br/>class = 2>, fillcolor="#9de539"] ;
336 -> 338 ;
339 [label=<Age &le; 37.0<br/>gini = 0.75<br/>samples = 1.7%<br/>value = [0.0, 0.24, 0.24, 0.06, 0.12, 0.35]<br/>class = 6>, fillcolor="#fbe1f0"] ;
307 -> 339 ;
340 [label=<Obligation &le; 0.63<br/>gini = 0.67<br/>samples = 1.3%<br/>value = [0.0, 0.23, 0.23, 0.08, 0.0, 0.46]<br/>class = 6>, fillcolor="#f7c4e2"] ;
339 -> 340 ;
341 [label=<Age &le; 28.5<br/>gini = 0.72<br/>samples = 1.0%<br/>value = [0.0, 0.3, 0.3, 0.1, 0.0, 0.3]<br/>class = 2>, fillcolor="#ffffff"] ;
340 -> 341 ;
342 [label=<gini = 0.0<br/>samples = 0.2%<br/>value = [0.0, 0.0, 1.0, 0.0, 0.0, 0.0]<br/>class = 3>, fillcolor="#39e581"] ;
341 -> 342 ;
343 [label=<Age &le; 32.0<br/>gini = 0.69<br/>samples = 0.8%<br/>value = [0.0, 0.38, 0.12, 0.12, 0.0, 0.38]<br/>class = 2>, fillcolor="#ffffff"] ;
341 -> 343 ;
344 [label=<Obligation &le; 0.61<br/>gini = 0.67<br/>samples = 0.6%<br/>value = [0.0, 0.5, 0.17, 0.17, 0.0, 0.17]<br/>class = 2>, fillcolor="#d8f5b0"] ;
343 -> 344 ;
345 [label=<gini = 0.0<br/>samples = 0.1%<br/>value = [0.0, 0.0, 0.0, 0.0, 0.0, 1.0]<br/>class = 6>, fillcolor="#e5399d"] ;
344 -> 345 ;
346 [label=<Obligation &le; 0.62<br/>gini = 0.56<br/>samples = 0.5%<br/>value = [0.0, 0.6, 0.2, 0.2, 0.0, 0.0]<br/>class = 2>, fillcolor="#cef29c"] ;
344 -> 346 ;
347 [label=<gini = 0.0<br/>samples = 0.2%<br/>value = [0.0, 1.0, 0.0, 0.0, 0.0, 0.0]<br/>class = 2>, fillcolor="#9de539"] ;
346 -> 347 ;
348 [label=<Age &le; 30.5<br/>gini = 0.67<br/>samples = 0.3%<br/>value = [0.0, 0.33, 0.33, 0.33, 0.0, 0.0]<br/>class = 2>, fillcolor="#ffffff"] ;
346 -> 348 ;
349 [label=<gini = 0.0<br/>samples = 0.1%<br/>value = [0.0, 0.0, 1.0, 0.0, 0.0, 0.0]<br/>class = 3>, fillcolor="#39e581"] ;
348 -> 349 ;
350 [label=<Obligation &le; 0.62<br/>gini = 0.5<br/>samples = 0.2%<br/>value = [0.0, 0.5, 0.0, 0.5, 0.0, 0.0]<br/>class = 2>, fillcolor="#ffffff"] ;
348 -> 350 ;
351 [label=<gini = 0.0<br/>samples = 0.1%<br/>value = [0.0, 0.0, 0.0, 1.0, 0.0, 0.0]<br/>class = 4>, fillcolor="#399de5"] ;
350 -> 351 ;
352 [label=<gini = 0.0<br/>samples = 0.1%<br/>value = [0.0, 1.0, 0.0, 0.0, 0.0, 0.0]<br/>class = 2>, fillcolor="#9de539"] ;
350 -> 352 ;
353 [label=<gini = 0.0<br/>samples = 0.2%<br/>value = [0.0, 0.0, 0.0, 0.0, 0.0, 1.0]<br/>class = 6>, fillcolor="#e5399d"] ;
343 -> 353 ;
354 [label=<gini = 0.0<br/>samples = 0.3%<br/>value = [0.0, 0.0, 0.0, 0.0, 0.0, 1.0]<br/>class = 6>, fillcolor="#e5399d"] ;
340 -> 354 ;
355 [label=<Obligation &le; 0.63<br/>gini = 0.62<br/>samples = 0.4%<br/>value = [0.0, 0.25, 0.25, 0.0, 0.5, 0.0]<br/>class = 5>, fillcolor="#d5bdf6"] ;
339 -> 355 ;
356 [label=<gini = 0.0<br/>samples = 0.2%<br/>value = [0.0, 0.0, 0.0, 0.0, 1.0, 0.0]<br/>class = 5>, fillcolor="#8139e5"] ;
355 -> 356 ;
357 [label=<Obligation &le; 0.64<br/>gini = 0.5<br/>samples = 0.2%<br/>value = [0.0, 0.5, 0.5, 0.0, 0.0, 0.0]<br/>class = 2>, fillcolor="#ffffff"] ;
355 -> 357 ;
358 [label=<gini = 0.0<br/>samples = 0.1%<br/>value = [0.0, 0.0, 1.0, 0.0, 0.0, 0.0]<br/>class = 3>, fillcolor="#39e581"] ;
357 -> 358 ;
359 [label=<gini = 0.0<br/>samples = 0.1%<br/>value = [0.0, 1.0, 0.0, 0.0, 0.0, 0.0]<br/>class = 2>, fillcolor="#9de539"] ;
357 -> 359 ;
360 [label=<Obligation &le; 0.8<br/>gini = 0.8<br/>samples = 12.1%<br/>value = [0.31, 0.09, 0.19, 0.18, 0.1, 0.13]<br/>class = 1>, fillcolor="#fbede3"] ;
2 -> 360 ;
361 [label=<Age &le; 23.5<br/>gini = 0.76<br/>samples = 6.8%<br/>value = [0.37, 0.07, 0.24, 0.18, 0.06, 0.09]<br/>class = 1>, fillcolor="#fae9dd"] ;
360 -> 361 ;
362 [label=<Obligation &le; 0.77<br/>gini = 0.56<br/>samples = 0.8%<br/>value = [0.62, 0.12, 0.0, 0.12, 0.12, 0.0]<br/>class = 1>, fillcolor="#f0b78e"] ;
361 -> 362 ;
363 [label=<Obligation &le; 0.68<br/>gini = 0.32<br/>samples = 0.5%<br/>value = [0.8, 0.0, 0.0, 0.0, 0.2, 0.0]<br/>class = 1>, fillcolor="#eca06a"] ;
362 -> 363 ;
364 [label=<Obligation &le; 0.65<br/>gini = 0.5<br/>samples = 0.2%<br/>value = [0.5, 0.0, 0.0, 0.0, 0.5, 0.0]<br/>class = 1>, fillcolor="#ffffff"] ;
363 -> 364 ;
365 [label=<gini = 0.0<br/>samples = 0.1%<br/>value = [1.0, 0.0, 0.0, 0.0, 0.0, 0.0]<br/>class = 1>, fillcolor="#e58139"] ;
364 -> 365 ;
366 [label=<gini = 0.0<br/>samples = 0.1%<br/>value = [0.0, 0.0, 0.0, 0.0, 1.0, 0.0]<br/>class = 5>, fillcolor="#8139e5"] ;
364 -> 366 ;
367 [label=<gini = 0.0<br/>samples = 0.3%<br/>value = [1.0, 0.0, 0.0, 0.0, 0.0, 0.0]<br/>class = 1>, fillcolor="#e58139"] ;
363 -> 367 ;
368 [label=<Age &le; 21.5<br/>gini = 0.67<br/>samples = 0.3%<br/>value = [0.33, 0.33, 0.0, 0.33, 0.0, 0.0]<br/>class = 1>, fillcolor="#ffffff"] ;
362 -> 368 ;
369 [label=<gini = 0.0<br/>samples = 0.1%<br/>value = [0.0, 1.0, 0.0, 0.0, 0.0, 0.0]<br/>class = 2>, fillcolor="#9de539"] ;
368 -> 369 ;
370 [label=<Age &le; 22.5<br/>gini = 0.5<br/>samples = 0.2%<br/>value = [0.5, 0.0, 0.0, 0.5, 0.0, 0.0]<br/>class = 1>, fillcolor="#ffffff"] ;
368 -> 370 ;
371 [label=<gini = 0.0<br/>samples = 0.1%<br/>value = [0.0, 0.0, 0.0, 1.0, 0.0, 0.0]<br/>class = 4>, fillcolor="#399de5"] ;
370 -> 371 ;
372 [label=<gini = 0.0<br/>samples = 0.1%<br/>value = [1.0, 0.0, 0.0, 0.0, 0.0, 0.0]<br/>class = 1>, fillcolor="#e58139"] ;
370 -> 372 ;
373 [label=<Age &le; 24.5<br/>gini = 0.77<br/>samples = 6.0%<br/>value = [0.33, 0.07, 0.27, 0.18, 0.05, 0.1]<br/>class = 1>, fillcolor="#fdf4ed"] ;
361 -> 373 ;
374 [label=<Obligation &le; 0.69<br/>gini = 0.38<br/>samples = 0.4%<br/>value = [0.0, 0.25, 0.75, 0.0, 0.0, 0.0]<br/>class = 3>, fillcolor="#7beeab"] ;
373 -> 374 ;
375 [label=<gini = 0.0<br/>samples = 0.1%<br/>value = [0.0, 1.0, 0.0, 0.0, 0.0, 0.0]<br/>class = 2>, fillcolor="#9de539"] ;
374 -> 375 ;
376 [label=<gini = 0.0<br/>samples = 0.3%<br/>value = [0.0, 0.0, 1.0, 0.0, 0.0, 0.0]<br/>class = 3>, fillcolor="#39e581"] ;
374 -> 376 ;
377 [label=<Obligation &le; 0.75<br/>gini = 0.76<br/>samples = 5.6%<br/>value = [0.36, 0.05, 0.23, 0.2, 0.05, 0.11]<br/>class = 1>, fillcolor="#fbeadf"] ;
373 -> 377 ;
378 [label=<Obligation &le; 0.67<br/>gini = 0.77<br/>samples = 3.4%<br/>value = [0.29, 0.09, 0.24, 0.26, 0.0, 0.12]<br/>class = 1>, fillcolor="#fefaf7"] ;
377 -> 378 ;
379 [label=<Obligation &le; 0.64<br/>gini = 0.75<br/>samples = 1.8%<br/>value = [0.39, 0.17, 0.17, 0.17, 0.0, 0.11]<br/>class = 1>, fillcolor="#f8ddca"] ;
378 -> 379 ;
380 [label=<Obligation &le; 0.64<br/>gini = 0.44<br/>samples = 0.3%<br/>value = [0.33, 0.0, 0.0, 0.67, 0.0, 0.0]<br/>class = 4>, fillcolor="#9ccef2"] ;
379 -> 380 ;
381 [label=<gini = 0.0<br/>samples = 0.1%<br/>value = [1.0, 0.0, 0.0, 0.0, 0.0, 0.0]<br/>class = 1>, fillcolor="#e58139"] ;
380 -> 381 ;
382 [label=<gini = 0.0<br/>samples = 0.2%<br/>value = [0.0, 0.0, 0.0, 1.0, 0.0, 0.0]<br/>class = 4>, fillcolor="#399de5"] ;
380 -> 382 ;
383 [label=<Age &le; 38.0<br/>gini = 0.74<br/>samples = 1.5%<br/>value = [0.4, 0.2, 0.2, 0.07, 0.0, 0.13]<br/>class = 1>, fillcolor="#f8e0ce"] ;
379 -> 383 ;
384 [label=<Age &le; 29.5<br/>gini = 0.76<br/>samples = 1.1%<br/>value = [0.27, 0.27, 0.27, 0.09, 0.0, 0.09]<br/>class = 1>, fillcolor="#ffffff"] ;
383 -> 384 ;
385 [label=<Obligation &le; 0.66<br/>gini = 0.56<br/>samples = 0.5%<br/>value = [0.6, 0.0, 0.2, 0.0, 0.0, 0.2]<br/>class = 1>, fillcolor="#f2c09c"] ;
384 -> 385 ;
386 [label=<gini = 0.0<br/>samples = 0.1%<br/>value = [0.0, 0.0, 0.0, 0.0, 0.0, 1.0]<br/>class = 6>, fillcolor="#e5399d"] ;
385 -> 386 ;
387 [label=<Obligation &le; 0.66<br/>gini = 0.38<br/>samples = 0.4%<br/>value = [0.75, 0.0, 0.25, 0.0, 0.0, 0.0]<br/>class = 1>, fillcolor="#eeab7b"] ;
385 -> 387 ;
388 [label=<Obligation &le; 0.66<br/>gini = 0.5<br/>samples = 0.2%<br/>value = [0.5, 0.0, 0.5, 0.0, 0.0, 0.0]<br/>class = 1>, fillcolor="#ffffff"] ;
387 -> 388 ;
389 [label=<gini = 0.0<br/>samples = 0.1%<br/>value = [1.0, 0.0, 0.0, 0.0, 0.0, 0.0]<br/>class = 1>, fillcolor="#e58139"] ;
388 -> 389 ;
390 [label=<gini = 0.0<br/>samples = 0.1%<br/>value = [0.0, 0.0, 1.0, 0.0, 0.0, 0.0]<br/>class = 3>, fillcolor="#39e581"] ;
388 -> 390 ;
391 [label=<gini = 0.0<br/>samples = 0.2%<br/>value = [1.0, 0.0, 0.0, 0.0, 0.0, 0.0]<br/>class = 1>, fillcolor="#e58139"] ;
387 -> 391 ;
392 [label=<Age &le; 34.0<br/>gini = 0.61<br/>samples = 0.6%<br/>value = [0.0, 0.5, 0.33, 0.17, 0.0, 0.0]<br/>class = 2>, fillcolor="#e6f8ce"] ;
384 -> 392 ;
393 [label=<Obligation &le; 0.65<br/>gini = 0.44<br/>samples = 0.3%<br/>value = [0.0, 0.67, 0.0, 0.33, 0.0, 0.0]<br/>class = 2>, fillcolor="#cef29c"] ;
392 -> 393 ;
394 [label=<gini = 0.0<br/>samples = 0.1%<br/>value = [0.0, 1.0, 0.0, 0.0, 0.0, 0.0]<br/>class = 2>, fillcolor="#9de539"] ;
393 -> 394 ;
395 [label=<Age &le; 31.5<br/>gini = 0.5<br/>samples = 0.2%<br/>value = [0.0, 0.5, 0.0, 0.5, 0.0, 0.0]<br/>class = 2>, fillcolor="#ffffff"] ;
393 -> 395 ;
396 [label=<gini = 0.0<br/>samples = 0.1%<br/>value = [0.0, 0.0, 0.0, 1.0, 0.0, 0.0]<br/>class = 4>, fillcolor="#399de5"] ;
395 -> 396 ;
397 [label=<gini = 0.0<br/>samples = 0.1%<br/>value = [0.0, 1.0, 0.0, 0.0, 0.0, 0.0]<br/>class = 2>, fillcolor="#9de539"] ;
395 -> 397 ;
398 [label=<Obligation &le; 0.65<br/>gini = 0.44<br/>samples = 0.3%<br/>value = [0.0, 0.33, 0.67, 0.0, 0.0, 0.0]<br/>class = 3>, fillcolor="#9cf2c0"] ;
392 -> 398 ;
399 [label=<gini = 0.0<br/>samples = 0.1%<br/>value = [0.0, 0.0, 1.0, 0.0, 0.0, 0.0]<br/>class = 3>, fillcolor="#39e581"] ;
398 -> 399 ;
400 [label=<Obligation &le; 0.66<br/>gini = 0.5<br/>samples = 0.2%<br/>value = [0.0, 0.5, 0.5, 0.0, 0.0, 0.0]<br/>class = 2>, fillcolor="#ffffff"] ;
398 -> 400 ;
401 [label=<gini = 0.0<br/>samples = 0.1%<br/>value = [0.0, 1.0, 0.0, 0.0, 0.0, 0.0]<br/>class = 2>, fillcolor="#9de539"] ;
400 -> 401 ;
402 [label=<gini = 0.0<br/>samples = 0.1%<br/>value = [0.0, 0.0, 1.0, 0.0, 0.0, 0.0]<br/>class = 3>, fillcolor="#39e581"] ;
400 -> 402 ;
403 [label=<Obligation &le; 0.66<br/>gini = 0.38<br/>samples = 0.4%<br/>value = [0.75, 0.0, 0.0, 0.0, 0.0, 0.25]<br/>class = 1>, fillcolor="#eeab7b"] ;
383 -> 403 ;
404 [label=<gini = 0.0<br/>samples = 0.3%<br/>value = [1.0, 0.0, 0.0, 0.0, 0.0, 0.0]<br/>class = 1>, fillcolor="#e58139"] ;
403 -> 404 ;
405 [label=<gini = 0.0<br/>samples = 0.1%<br/>value = [0.0, 0.0, 0.0, 0.0, 0.0, 1.0]<br/>class = 6>, fillcolor="#e5399d"] ;
403 -> 405 ;
406 [label=<Age &le; 40.0<br/>gini = 0.71<br/>samples = 1.6%<br/>value = [0.19, 0.0, 0.31, 0.38, 0.0, 0.12]<br/>class = 4>, fillcolor="#edf6fd"] ;
378 -> 406 ;
407 [label=<Age &le; 25.5<br/>gini = 0.7<br/>samples = 1.4%<br/>value = [0.21, 0.0, 0.21, 0.43, 0.0, 0.14]<br/>class = 4>, fillcolor="#c9e4f8"] ;
406 -> 407 ;
408 [label=<gini = 0.0<br/>samples = 0.2%<br/>value = [0.0, 0.0, 0.0, 1.0, 0.0, 0.0]<br/>class = 4>, fillcolor="#399de5"] ;
407 -> 408 ;
409 [label=<Age &le; 36.0<br/>gini = 0.74<br/>samples = 1.2%<br/>value = [0.25, 0.0, 0.25, 0.33, 0.0, 0.17]<br/>class = 4>, fillcolor="#e9f4fc"] ;
407 -> 409 ;
410 [label=<Age &le; 33.0<br/>gini = 0.74<br/>samples = 1.0%<br/>value = [0.3, 0.0, 0.3, 0.2, 0.0, 0.2]<br/>class = 1>, fillcolor="#ffffff"] ;
409 -> 410 ;
411 [label=<Obligation &le; 0.68<br/>gini = 0.65<br/>samples = 0.7%<br/>value = [0.43, 0.0, 0.29, 0.29, 0.0, 0.0]<br/>class = 1>, fillcolor="#fae6d7"] ;
410 -> 411 ;
412 [label=<Obligation &le; 0.68<br/>gini = 0.44<br/>samples = 0.3%<br/>value = [0.0, 0.0, 0.33, 0.67, 0.0, 0.0]<br/>class = 4>, fillcolor="#9ccef2"] ;
411 -> 412 ;
413 [label=<gini = 0.0<br/>samples = 0.1%<br/>value = [0.0, 0.0, 1.0, 0.0, 0.0, 0.0]<br/>class = 3>, fillcolor="#39e581"] ;
412 -> 413 ;
414 [label=<gini = 0.0<br/>samples = 0.2%<br/>value = [0.0, 0.0, 0.0, 1.0, 0.0, 0.0]<br/>class = 4>, fillcolor="#399de5"] ;
412 -> 414 ;
415 [label=<Age &le; 30.5<br/>gini = 0.38<br/>samples = 0.4%<br/>value = [0.75, 0.0, 0.25, 0.0, 0.0, 0.0]<br/>class = 1>, fillcolor="#eeab7b"] ;
411 -> 415 ;
416 [label=<gini = 0.0<br/>samples = 0.2%<br/>value = [1.0, 0.0, 0.0, 0.0, 0.0, 0.0]<br/>class = 1>, fillcolor="#e58139"] ;
415 -> 416 ;
417 [label=<Obligation &le; 0.74<br/>gini = 0.5<br/>samples = 0.2%<br/>value = [0.5, 0.0, 0.5, 0.0, 0.0, 0.0]<br/>class = 1>, fillcolor="#ffffff"] ;
415 -> 417 ;
418 [label=<gini = 0.0<br/>samples = 0.1%<br/>value = [0.0, 0.0, 1.0, 0.0, 0.0, 0.0]<br/>class = 3>, fillcolor="#39e581"] ;
417 -> 418 ;
419 [label=<gini = 0.0<br/>samples = 0.1%<br/>value = [1.0, 0.0, 0.0, 0.0, 0.0, 0.0]<br/>class = 1>, fillcolor="#e58139"] ;
417 -> 419 ;
420 [label=<Age &le; 34.5<br/>gini = 0.44<br/>samples = 0.3%<br/>value = [0.0, 0.0, 0.33, 0.0, 0.0, 0.67]<br/>class = 6>, fillcolor="#f29cce"] ;
410 -> 420 ;
421 [label=<gini = 0.0<br/>samples = 0.2%<br/>value = [0.0, 0.0, 0.0, 0.0, 0.0, 1.0]<br/>class = 6>, fillcolor="#e5399d"] ;
420 -> 421 ;
422 [label=<gini = 0.0<br/>samples = 0.1%<br/>value = [0.0, 0.0, 1.0, 0.0, 0.0, 0.0]<br/>class = 3>, fillcolor="#39e581"] ;
420 -> 422 ;
423 [label=<gini = 0.0<br/>samples = 0.2%<br/>value = [0.0, 0.0, 0.0, 1.0, 0.0, 0.0]<br/>class = 4>, fillcolor="#399de5"] ;
409 -> 423 ;
424 [label=<gini = 0.0<br/>samples = 0.2%<br/>value = [0.0, 0.0, 1.0, 0.0, 0.0, 0.0]<br/>class = 3>, fillcolor="#39e581"] ;
406 -> 424 ;
425 [label=<Age &le; 26.5<br/>gini = 0.71<br/>samples = 2.2%<br/>value = [0.45, 0.0, 0.23, 0.09, 0.14, 0.09]<br/>class = 1>, fillcolor="#f7dac5"] ;
377 -> 425 ;
426 [label=<gini = 0.0<br/>samples = 0.2%<br/>value = [0.0, 0.0, 1.0, 0.0, 0.0, 0.0]<br/>class = 3>, fillcolor="#39e581"] ;
425 -> 426 ;
427 [label=<Obligation &le; 0.75<br/>gini = 0.68<br/>samples = 2.0%<br/>value = [0.5, 0.0, 0.15, 0.1, 0.15, 0.1]<br/>class = 1>, fillcolor="#f4cbad"] ;
425 -> 427 ;
428 [label=<Obligation &le; 0.75<br/>gini = 0.5<br/>samples = 0.4%<br/>value = [0.5, 0.0, 0.0, 0.0, 0.5, 0.0]<br/>class = 1>, fillcolor="#ffffff"] ;
427 -> 428 ;
429 [label=<gini = 0.0<br/>samples = 0.1%<br/>value = [1.0, 0.0, 0.0, 0.0, 0.0, 0.0]<br/>class = 1>, fillcolor="#e58139"] ;
428 -> 429 ;
430 [label=<Obligation &le; 0.75<br/>gini = 0.44<br/>samples = 0.3%<br/>value = [0.33, 0.0, 0.0, 0.0, 0.67, 0.0]<br/>class = 5>, fillcolor="#c09cf2"] ;
428 -> 430 ;
431 [label=<gini = 0.0<br/>samples = 0.1%<br/>value = [0.0, 0.0, 0.0, 0.0, 1.0, 0.0]<br/>class = 5>, fillcolor="#8139e5"] ;
430 -> 431 ;
432 [label=<Obligation &le; 0.75<br/>gini = 0.5<br/>samples = 0.2%<br/>value = [0.5, 0.0, 0.0, 0.0, 0.5, 0.0]<br/>class = 1>, fillcolor="#ffffff"] ;
430 -> 432 ;
433 [label=<gini = 0.0<br/>samples = 0.1%<br/>value = [1.0, 0.0, 0.0, 0.0, 0.0, 0.0]<br/>class = 1>, fillcolor="#e58139"] ;
432 -> 433 ;
434 [label=<gini = 0.0<br/>samples = 0.1%<br/>value = [0.0, 0.0, 0.0, 0.0, 1.0, 0.0]<br/>class = 5>, fillcolor="#8139e5"] ;
432 -> 434 ;
435 [label=<Age &le; 39.5<br/>gini = 0.68<br/>samples = 1.6%<br/>value = [0.5, 0.0, 0.19, 0.12, 0.06, 0.12]<br/>class = 1>, fillcolor="#f5cfb3"] ;
427 -> 435 ;
436 [label=<Obligation &le; 0.76<br/>gini = 0.72<br/>samples = 1.4%<br/>value = [0.43, 0.0, 0.21, 0.14, 0.07, 0.14]<br/>class = 1>, fillcolor="#f8ddc9"] ;
435 -> 436 ;
437 [label=<gini = 0.0<br/>samples = 0.1%<br/>value = [0.0, 0.0, 0.0, 0.0, 0.0, 1.0]<br/>class = 6>, fillcolor="#e5399d"] ;
436 -> 437 ;
438 [label=<Obligation &le; 0.77<br/>gini = 0.7<br/>samples = 1.3%<br/>value = [0.46, 0.0, 0.23, 0.15, 0.08, 0.08]<br/>class = 1>, fillcolor="#f7d9c4"] ;
436 -> 438 ;
439 [label=<Age &le; 38.5<br/>gini = 0.44<br/>samples = 0.6%<br/>value = [0.67, 0.0, 0.33, 0.0, 0.0, 0.0]<br/>class = 1>, fillcolor="#f2c09c"] ;
438 -> 439 ;
440 [label=<Age &le; 31.0<br/>gini = 0.32<br/>samples = 0.5%<br/>value = [0.8, 0.0, 0.2, 0.0, 0.0, 0.0]<br/>class = 1>, fillcolor="#eca06a"] ;
439 -> 440 ;
441 [label=<Age &le; 28.5<br/>gini = 0.5<br/>samples = 0.2%<br/>value = [0.5, 0.0, 0.5, 0.0, 0.0, 0.0]<br/>class = 1>, fillcolor="#ffffff"] ;
440 -> 441 ;
442 [label=<gini = 0.0<br/>samples = 0.1%<br/>value = [1.0, 0.0, 0.0, 0.0, 0.0, 0.0]<br/>class = 1>, fillcolor="#e58139"] ;
441 -> 442 ;
443 [label=<gini = 0.0<br/>samples = 0.1%<br/>value = [0.0, 0.0, 1.0, 0.0, 0.0, 0.0]<br/>class = 3>, fillcolor="#39e581"] ;
441 -> 443 ;
444 [label=<gini = 0.0<br/>samples = 0.3%<br/>value = [1.0, 0.0, 0.0, 0.0, 0.0, 0.0]<br/>class = 1>, fillcolor="#e58139"] ;
440 -> 444 ;
445 [label=<gini = 0.0<br/>samples = 0.1%<br/>value = [0.0, 0.0, 1.0, 0.0, 0.0, 0.0]<br/>class = 3>, fillcolor="#39e581"] ;
439 -> 445 ;
446 [label=<Age &le; 30.5<br/>gini = 0.78<br/>samples = 0.7%<br/>value = [0.29, 0.0, 0.14, 0.29, 0.14, 0.14]<br/>class = 1>, fillcolor="#ffffff"] ;
438 -> 446 ;
447 [label=<Age &le; 29.5<br/>gini = 0.5<br/>samples = 0.2%<br/>value = [0.0, 0.0, 0.0, 0.5, 0.5, 0.0]<br/>class = 4>, fillcolor="#ffffff"] ;
446 -> 447 ;
448 [label=<gini = 0.0<br/>samples = 0.1%<br/>value = [0.0, 0.0, 0.0, 1.0, 0.0, 0.0]<br/>class = 4>, fillcolor="#399de5"] ;
447 -> 448 ;
449 [label=<gini = 0.0<br/>samples = 0.1%<br/>value = [0.0, 0.0, 0.0, 0.0, 1.0, 0.0]<br/>class = 5>, fillcolor="#8139e5"] ;
447 -> 449 ;
450 [label=<Obligation &le; 0.78<br/>gini = 0.72<br/>samples = 0.5%<br/>value = [0.4, 0.0, 0.2, 0.2, 0.0, 0.2]<br/>class = 1>, fillcolor="#f8e0ce"] ;
446 -> 450 ;
451 [label=<gini = 0.0<br/>samples = 0.1%<br/>value = [0.0, 0.0, 1.0, 0.0, 0.0, 0.0]<br/>class = 3>, fillcolor="#39e581"] ;
450 -> 451 ;
452 [label=<Age &le; 31.5<br/>gini = 0.62<br/>samples = 0.4%<br/>value = [0.5, 0.0, 0.0, 0.25, 0.0, 0.25]<br/>class = 1>, fillcolor="#f6d5bd"] ;
450 -> 452 ;
453 [label=<gini = 0.0<br/>samples = 0.1%<br/>value = [1.0, 0.0, 0.0, 0.0, 0.0, 0.0]<br/>class = 1>, fillcolor="#e58139"] ;
452 -> 453 ;
454 [label=<Obligation &le; 0.79<br/>gini = 0.67<br/>samples = 0.3%<br/>value = [0.33, 0.0, 0.0, 0.33, 0.0, 0.33]<br/>class = 1>, fillcolor="#ffffff"] ;
452 -> 454 ;
455 [label=<gini = 0.0<br/>samples = 0.1%<br/>value = [1.0, 0.0, 0.0, 0.0, 0.0, 0.0]<br/>class = 1>, fillcolor="#e58139"] ;
454 -> 455 ;
456 [label=<Age &le; 34.0<br/>gini = 0.5<br/>samples = 0.2%<br/>value = [0.0, 0.0, 0.0, 0.5, 0.0, 0.5]<br/>class = 4>, fillcolor="#ffffff"] ;
454 -> 456 ;
457 [label=<gini = 0.0<br/>samples = 0.1%<br/>value = [0.0, 0.0, 0.0, 0.0, 0.0, 1.0]<br/>class = 6>, fillcolor="#e5399d"] ;
456 -> 457 ;
458 [label=<gini = 0.0<br/>samples = 0.1%<br/>value = [0.0, 0.0, 0.0, 1.0, 0.0, 0.0]<br/>class = 4>, fillcolor="#399de5"] ;
456 -> 458 ;
459 [label=<gini = 0.0<br/>samples = 0.2%<br/>value = [1.0, 0.0, 0.0, 0.0, 0.0, 0.0]<br/>class = 1>, fillcolor="#e58139"] ;
435 -> 459 ;
460 [label=<Obligation &le; 0.83<br/>gini = 0.82<br/>samples = 5.3%<br/>value = [0.23, 0.11, 0.13, 0.19, 0.15, 0.19]<br/>class = 1>, fillcolor="#fef9f6"] ;
360 -> 460 ;
461 [label=<Obligation &le; 0.81<br/>gini = 0.71<br/>samples = 1.4%<br/>value = [0.0, 0.21, 0.07, 0.07, 0.21, 0.43]<br/>class = 6>, fillcolor="#f8c9e4"] ;
460 -> 461 ;
462 [label=<Obligation &le; 0.8<br/>gini = 0.62<br/>samples = 0.4%<br/>value = [0.0, 0.0, 0.0, 0.25, 0.5, 0.25]<br/>class = 5>, fillcolor="#d5bdf6"] ;
461 -> 462 ;
463 [label=<gini = 0.0<br/>samples = 0.1%<br/>value = [0.0, 0.0, 0.0, 0.0, 0.0, 1.0]<br/>class = 6>, fillcolor="#e5399d"] ;
462 -> 463 ;
464 [label=<Obligation &le; 0.8<br/>gini = 0.44<br/>samples = 0.3%<br/>value = [0.0, 0.0, 0.0, 0.33, 0.67, 0.0]<br/>class = 5>, fillcolor="#c09cf2"] ;
462 -> 464 ;
465 [label=<gini = 0.0<br/>samples = 0.2%<br/>value = [0.0, 0.0, 0.0, 0.0, 1.0, 0.0]<br/>class = 5>, fillcolor="#8139e5"] ;
464 -> 465 ;
466 [label=<gini = 0.0<br/>samples = 0.1%<br/>value = [0.0, 0.0, 0.0, 1.0, 0.0, 0.0]<br/>class = 4>, fillcolor="#399de5"] ;
464 -> 466 ;
467 [label=<Age &le; 31.0<br/>gini = 0.64<br/>samples = 1.0%<br/>value = [0.0, 0.3, 0.1, 0.0, 0.1, 0.5]<br/>class = 6>, fillcolor="#f8c6e3"] ;
461 -> 467 ;
468 [label=<Obligation &le; 0.83<br/>gini = 0.48<br/>samples = 0.5%<br/>value = [0.0, 0.6, 0.0, 0.0, 0.0, 0.4]<br/>class = 2>, fillcolor="#def6bd"] ;
467 -> 468 ;
469 [label=<gini = 0.0<br/>samples = 0.3%<br/>value = [0.0, 1.0, 0.0, 0.0, 0.0, 0.0]<br/>class = 2>, fillcolor="#9de539"] ;
468 -> 469 ;
470 [label=<gini = 0.0<br/>samples = 0.2%<br/>value = [0.0, 0.0, 0.0, 0.0, 0.0, 1.0]<br/>class = 6>, fillcolor="#e5399d"] ;
468 -> 470 ;
471 [label=<Obligation &le; 0.82<br/>gini = 0.56<br/>samples = 0.5%<br/>value = [0.0, 0.0, 0.2, 0.0, 0.2, 0.6]<br/>class = 6>, fillcolor="#f29cce"] ;
467 -> 471 ;
472 [label=<gini = 0.0<br/>samples = 0.2%<br/>value = [0.0, 0.0, 0.0, 0.0, 0.0, 1.0]<br/>class = 6>, fillcolor="#e5399d"] ;
471 -> 472 ;
473 [label=<Age &le; 36.5<br/>gini = 0.67<br/>samples = 0.3%<br/>value = [0.0, 0.0, 0.33, 0.0, 0.33, 0.33]<br/>class = 3>, fillcolor="#ffffff"] ;
471 -> 473 ;
474 [label=<gini = 0.0<br/>samples = 0.1%<br/>value = [0.0, 0.0, 0.0, 0.0, 1.0, 0.0]<br/>class = 5>, fillcolor="#8139e5"] ;
473 -> 474 ;
475 [label=<Obligation &le; 0.82<br/>gini = 0.5<br/>samples = 0.2%<br/>value = [0.0, 0.0, 0.5, 0.0, 0.0, 0.5]<br/>class = 3>, fillcolor="#ffffff"] ;
473 -> 475 ;
476 [label=<gini = 0.0<br/>samples = 0.1%<br/>value = [0.0, 0.0, 1.0, 0.0, 0.0, 0.0]<br/>class = 3>, fillcolor="#39e581"] ;
475 -> 476 ;
477 [label=<gini = 0.0<br/>samples = 0.1%<br/>value = [0.0, 0.0, 0.0, 0.0, 0.0, 1.0]<br/>class = 6>, fillcolor="#e5399d"] ;
475 -> 477 ;
478 [label=<Obligation &le; 0.85<br/>gini = 0.8<br/>samples = 3.9%<br/>value = [0.31, 0.08, 0.15, 0.23, 0.13, 0.1]<br/>class = 1>, fillcolor="#fcf2eb"] ;
460 -> 478 ;
479 [label=<Obligation &le; 0.85<br/>gini = 0.62<br/>samples = 0.9%<br/>value = [0.22, 0.0, 0.11, 0.56, 0.11, 0.0]<br/>class = 4>, fillcolor="#aad5f4"] ;
478 -> 479 ;
480 [label=<Obligation &le; 0.84<br/>gini = 0.69<br/>samples = 0.7%<br/>value = [0.29, 0.0, 0.14, 0.43, 0.14, 0.0]<br/>class = 4>, fillcolor="#d7ebfa"] ;
479 -> 480 ;
481 [label=<Obligation &le; 0.84<br/>gini = 0.38<br/>samples = 0.4%<br/>value = [0.25, 0.0, 0.0, 0.75, 0.0, 0.0]<br/>class = 4>, fillcolor="#7bbeee"] ;
480 -> 481 ;
482 [label=<Obligation &le; 0.84<br/>gini = 0.5<br/>samples = 0.2%<br/>value = [0.5, 0.0, 0.0, 0.5, 0.0, 0.0]<br/>class = 1>, fillcolor="#ffffff"] ;
481 -> 482 ;
483 [label=<gini = 0.0<br/>samples = 0.1%<br/>value = [0.0, 0.0, 0.0, 1.0, 0.0, 0.0]<br/>class = 4>, fillcolor="#399de5"] ;
482 -> 483 ;
484 [label=<gini = 0.0<br/>samples = 0.1%<br/>value = [1.0, 0.0, 0.0, 0.0, 0.0, 0.0]<br/>class = 1>, fillcolor="#e58139"] ;
482 -> 484 ;
485 [label=<gini = 0.0<br/>samples = 0.2%<br/>value = [0.0, 0.0, 0.0, 1.0, 0.0, 0.0]<br/>class = 4>, fillcolor="#399de5"] ;
481 -> 485 ;
486 [label=<Obligation &le; 0.84<br/>gini = 0.67<br/>samples = 0.3%<br/>value = [0.33, 0.0, 0.33, 0.0, 0.33, 0.0]<br/>class = 1>, fillcolor="#ffffff"] ;
480 -> 486 ;
487 [label=<gini = 0.0<br/>samples = 0.1%<br/>value = [0.0, 0.0, 1.0, 0.0, 0.0, 0.0]<br/>class = 3>, fillcolor="#39e581"] ;
486 -> 487 ;
488 [label=<Obligation &le; 0.84<br/>gini = 0.5<br/>samples = 0.2%<br/>value = [0.5, 0.0, 0.0, 0.0, 0.5, 0.0]<br/>class = 1>, fillcolor="#ffffff"] ;
486 -> 488 ;
489 [label=<gini = 0.0<br/>samples = 0.1%<br/>value = [0.0, 0.0, 0.0, 0.0, 1.0, 0.0]<br/>class = 5>, fillcolor="#8139e5"] ;
488 -> 489 ;
490 [label=<gini = 0.0<br/>samples = 0.1%<br/>value = [1.0, 0.0, 0.0, 0.0, 0.0, 0.0]<br/>class = 1>, fillcolor="#e58139"] ;
488 -> 490 ;
491 [label=<gini = 0.0<br/>samples = 0.2%<br/>value = [0.0, 0.0, 0.0, 1.0, 0.0, 0.0]<br/>class = 4>, fillcolor="#399de5"] ;
479 -> 491 ;
492 [label=<Age &le; 40.5<br/>gini = 0.8<br/>samples = 3.0%<br/>value = [0.33, 0.1, 0.17, 0.13, 0.13, 0.13]<br/>class = 1>, fillcolor="#fae6d7"] ;
478 -> 492 ;
493 [label=<Age &le; 33.5<br/>gini = 0.78<br/>samples = 2.7%<br/>value = [0.37, 0.11, 0.15, 0.07, 0.15, 0.15]<br/>class = 1>, fillcolor="#f8decb"] ;
492 -> 493 ;
494 [label=<Age &le; 23.5<br/>gini = 0.79<br/>samples = 1.9%<br/>value = [0.32, 0.11, 0.21, 0.11, 0.05, 0.21]<br/>class = 1>, fillcolor="#fceee5"] ;
493 -> 494 ;
495 [label=<Obligation &le; 0.91<br/>gini = 0.38<br/>samples = 0.4%<br/>value = [0.75, 0.0, 0.25, 0.0, 0.0, 0.0]<br/>class = 1>, fillcolor="#eeab7b"] ;
494 -> 495 ;
496 [label=<gini = 0.0<br/>samples = 0.3%<br/>value = [1.0, 0.0, 0.0, 0.0, 0.0, 0.0]<br/>class = 1>, fillcolor="#e58139"] ;
495 -> 496 ;
497 [label=<gini = 0.0<br/>samples = 0.1%<br/>value = [0.0, 0.0, 1.0, 0.0, 0.0, 0.0]<br/>class = 3>, fillcolor="#39e581"] ;
495 -> 497 ;
498 [label=<Obligation &le; 0.88<br/>gini = 0.81<br/>samples = 1.5%<br/>value = [0.2, 0.13, 0.2, 0.13, 0.07, 0.27]<br/>class = 6>, fillcolor="#fdeff7"] ;
494 -> 498 ;
499 [label=<Obligation &le; 0.87<br/>gini = 0.72<br/>samples = 0.6%<br/>value = [0.17, 0.33, 0.33, 0.0, 0.0, 0.17]<br/>class = 2>, fillcolor="#ffffff"] ;
498 -> 499 ;
500 [label=<Obligation &le; 0.85<br/>gini = 0.62<br/>samples = 0.4%<br/>value = [0.25, 0.0, 0.5, 0.0, 0.0, 0.25]<br/>class = 3>, fillcolor="#bdf6d5"] ;
499 -> 500 ;
501 [label=<gini = 0.0<br/>samples = 0.1%<br/>value = [1.0, 0.0, 0.0, 0.0, 0.0, 0.0]<br/>class = 1>, fillcolor="#e58139"] ;
500 -> 501 ;
502 [label=<Obligation &le; 0.86<br/>gini = 0.44<br/>samples = 0.3%<br/>value = [0.0, 0.0, 0.67, 0.0, 0.0, 0.33]<br/>class = 3>, fillcolor="#9cf2c0"] ;
500 -> 502 ;
503 [label=<gini = 0.0<br/>samples = 0.1%<br/>value = [0.0, 0.0, 1.0, 0.0, 0.0, 0.0]<br/>class = 3>, fillcolor="#39e581"] ;
502 -> 503 ;
504 [label=<Obligation &le; 0.86<br/>gini = 0.5<br/>samples = 0.2%<br/>value = [0.0, 0.0, 0.5, 0.0, 0.0, 0.5]<br/>class = 3>, fillcolor="#ffffff"] ;
502 -> 504 ;
505 [label=<gini = 0.0<br/>samples = 0.1%<br/>value = [0.0, 0.0, 0.0, 0.0, 0.0, 1.0]<br/>class = 6>, fillcolor="#e5399d"] ;
504 -> 505 ;
506 [label=<gini = 0.0<br/>samples = 0.1%<br/>value = [0.0, 0.0, 1.0, 0.0, 0.0, 0.0]<br/>class = 3>, fillcolor="#39e581"] ;
504 -> 506 ;
507 [label=<gini = 0.0<br/>samples = 0.2%<br/>value = [0.0, 1.0, 0.0, 0.0, 0.0, 0.0]<br/>class = 2>, fillcolor="#9de539"] ;
499 -> 507 ;
508 [label=<Age &le; 24.5<br/>gini = 0.77<br/>samples = 0.9%<br/>value = [0.22, 0.0, 0.11, 0.22, 0.11, 0.33]<br/>class = 6>, fillcolor="#fbe3f1"] ;
498 -> 508 ;
509 [label=<Obligation &le; 0.9<br/>gini = 0.5<br/>samples = 0.2%<br/>value = [0.5, 0.0, 0.5, 0.0, 0.0, 0.0]<br/>class = 1>, fillcolor="#ffffff"] ;
508 -> 509 ;
510 [label=<gini = 0.0<br/>samples = 0.1%<br/>value = [1.0, 0.0, 0.0, 0.0, 0.0, 0.0]<br/>class = 1>, fillcolor="#e58139"] ;
509 -> 510 ;
511 [label=<gini = 0.0<br/>samples = 0.1%<br/>value = [0.0, 0.0, 1.0, 0.0, 0.0, 0.0]<br/>class = 3>, fillcolor="#39e581"] ;
509 -> 511 ;
512 [label=<Age &le; 26.5<br/>gini = 0.69<br/>samples = 0.7%<br/>value = [0.14, 0.0, 0.0, 0.29, 0.14, 0.43]<br/>class = 6>, fillcolor="#fad7eb"] ;
508 -> 512 ;
513 [label=<gini = 0.0<br/>samples = 0.2%<br/>value = [0.0, 0.0, 0.0, 0.0, 0.0, 1.0]<br/>class = 6>, fillcolor="#e5399d"] ;
512 -> 513 ;
514 [label=<Age &le; 29.5<br/>gini = 0.72<br/>samples = 0.5%<br/>value = [0.2, 0.0, 0.0, 0.4, 0.2, 0.2]<br/>class = 4>, fillcolor="#cee6f8"] ;
512 -> 514 ;
515 [label=<gini = 0.0<br/>samples = 0.2%<br/>value = [0.0, 0.0, 0.0, 1.0, 0.0, 0.0]<br/>class = 4>, fillcolor="#399de5"] ;
514 -> 515 ;
516 [label=<Age &le; 31.5<br/>gini = 0.67<br/>samples = 0.3%<br/>value = [0.33, 0.0, 0.0, 0.0, 0.33, 0.33]<br/>class = 1>, fillcolor="#ffffff"] ;
514 -> 516 ;
517 [label=<Obligation &le; 0.88<br/>gini = 0.5<br/>samples = 0.2%<br/>value = [0.0, 0.0, 0.0, 0.0, 0.5, 0.5]<br/>class = 5>, fillcolor="#ffffff"] ;
516 -> 517 ;
518 [label=<gini = 0.0<br/>samples = 0.1%<br/>value = [0.0, 0.0, 0.0, 0.0, 0.0, 1.0]<br/>class = 6>, fillcolor="#e5399d"] ;
517 -> 518 ;
519 [label=<gini = 0.0<br/>samples = 0.1%<br/>value = [0.0, 0.0, 0.0, 0.0, 1.0, 0.0]<br/>class = 5>, fillcolor="#8139e5"] ;
517 -> 519 ;
520 [label=<gini = 0.0<br/>samples = 0.1%<br/>value = [1.0, 0.0, 0.0, 0.0, 0.0, 0.0]<br/>class = 1>, fillcolor="#e58139"] ;
516 -> 520 ;
521 [label=<Obligation &le; 0.88<br/>gini = 0.59<br/>samples = 0.8%<br/>value = [0.5, 0.12, 0.0, 0.0, 0.38, 0.0]<br/>class = 1>, fillcolor="#fae6d7"] ;
493 -> 521 ;
522 [label=<Obligation &le; 0.87<br/>gini = 0.5<br/>samples = 0.2%<br/>value = [0.0, 0.5, 0.0, 0.0, 0.5, 0.0]<br/>class = 2>, fillcolor="#ffffff"] ;
521 -> 522 ;
523 [label=<gini = 0.0<br/>samples = 0.1%<br/>value = [0.0, 0.0, 0.0, 0.0, 1.0, 0.0]<br/>class = 5>, fillcolor="#8139e5"] ;
522 -> 523 ;
524 [label=<gini = 0.0<br/>samples = 0.1%<br/>value = [0.0, 1.0, 0.0, 0.0, 0.0, 0.0]<br/>class = 2>, fillcolor="#9de539"] ;
522 -> 524 ;
525 [label=<Obligation &le; 0.91<br/>gini = 0.44<br/>samples = 0.6%<br/>value = [0.67, 0.0, 0.0, 0.0, 0.33, 0.0]<br/>class = 1>, fillcolor="#f2c09c"] ;
521 -> 525 ;
526 [label=<Obligation &le; 0.89<br/>gini = 0.32<br/>samples = 0.5%<br/>value = [0.8, 0.0, 0.0, 0.0, 0.2, 0.0]<br/>class = 1>, fillcolor="#eca06a"] ;
525 -> 526 ;
527 [label=<Obligation &le; 0.88<br/>gini = 0.5<br/>samples = 0.2%<br/>value = [0.5, 0.0, 0.0, 0.0, 0.5, 0.0]<br/>class = 1>, fillcolor="#ffffff"] ;
526 -> 527 ;
528 [label=<gini = 0.0<br/>samples = 0.1%<br/>value = [1.0, 0.0, 0.0, 0.0, 0.0, 0.0]<br/>class = 1>, fillcolor="#e58139"] ;
527 -> 528 ;
529 [label=<gini = 0.0<br/>samples = 0.1%<br/>value = [0.0, 0.0, 0.0, 0.0, 1.0, 0.0]<br/>class = 5>, fillcolor="#8139e5"] ;
527 -> 529 ;
530 [label=<gini = 0.0<br/>samples = 0.3%<br/>value = [1.0, 0.0, 0.0, 0.0, 0.0, 0.0]<br/>class = 1>, fillcolor="#e58139"] ;
526 -> 530 ;
531 [label=<gini = 0.0<br/>samples = 0.1%<br/>value = [0.0, 0.0, 0.0, 0.0, 1.0, 0.0]<br/>class = 5>, fillcolor="#8139e5"] ;
525 -> 531 ;
532 [label=<Obligation &le; 0.9<br/>gini = 0.44<br/>samples = 0.3%<br/>value = [0.0, 0.0, 0.33, 0.67, 0.0, 0.0]<br/>class = 4>, fillcolor="#9ccef2"] ;
492 -> 532 ;
533 [label=<gini = 0.0<br/>samples = 0.1%<br/>value = [0.0, 0.0, 0.0, 1.0, 0.0, 0.0]<br/>class = 4>, fillcolor="#399de5"] ;
532 -> 533 ;
534 [label=<Obligation &le; 0.92<br/>gini = 0.5<br/>samples = 0.2%<br/>value = [0.0, 0.0, 0.5, 0.5, 0.0, 0.0]<br/>class = 3>, fillcolor="#ffffff"] ;
532 -> 534 ;
535 [label=<gini = 0.0<br/>samples = 0.1%<br/>value = [0.0, 0.0, 1.0, 0.0, 0.0, 0.0]<br/>class = 3>, fillcolor="#39e581"] ;
534 -> 535 ;
536 [label=<gini = 0.0<br/>samples = 0.1%<br/>value = [0.0, 0.0, 0.0, 1.0, 0.0, 0.0]<br/>class = 4>, fillcolor="#399de5"] ;
534 -> 536 ;
537 [label=<Obligation &le; 0.94<br/>gini = 0.77<br/>samples = 3.6%<br/>value = [0.17, 0.36, 0.17, 0.14, 0.03, 0.14]<br/>class = 2>, fillcolor="#e8f9d1"] ;
1 -> 537 ;
538 [label=<gini = 0.0<br/>samples = 0.4%<br/>value = [0.0, 1.0, 0.0, 0.0, 0.0, 0.0]<br/>class = 2>, fillcolor="#9de539"] ;
537 -> 538 ;
539 [label=<Age &le; 21.5<br/>gini = 0.8<br/>samples = 3.2%<br/>value = [0.19, 0.28, 0.19, 0.16, 0.03, 0.16]<br/>class = 2>, fillcolor="#f4fce8"] ;
537 -> 539 ;
540 [label=<gini = 0.0<br/>samples = 0.2%<br/>value = [0.0, 0.0, 0.0, 1.0, 0.0, 0.0]<br/>class = 4>, fillcolor="#399de5"] ;
539 -> 540 ;
541 [label=<Age &le; 32.5<br/>gini = 0.79<br/>samples = 3.0%<br/>value = [0.2, 0.3, 0.2, 0.1, 0.03, 0.17]<br/>class = 2>, fillcolor="#f3fce6"] ;
539 -> 541 ;
542 [label=<Age &le; 24.5<br/>gini = 0.77<br/>samples = 1.9%<br/>value = [0.05, 0.32, 0.26, 0.11, 0.05, 0.21]<br/>class = 2>, fillcolor="#f8fdf1"] ;
541 -> 542 ;
543 [label=<Obligation &le; 0.94<br/>gini = 0.56<br/>samples = 0.5%<br/>value = [0.2, 0.6, 0.0, 0.0, 0.0, 0.2]<br/>class = 2>, fillcolor="#cef29c"] ;
542 -> 543 ;
544 [label=<gini = 0.0<br/>samples = 0.1%<br/>value = [0.0, 0.0, 0.0, 0.0, 0.0, 1.0]<br/>class = 6>, fillcolor="#e5399d"] ;
543 -> 544 ;
545 [label=<Obligation &le; 0.99<br/>gini = 0.38<br/>samples = 0.4%<br/>value = [0.25, 0.75, 0.0, 0.0, 0.0, 0.0]<br/>class = 2>, fillcolor="#beee7b"] ;
543 -> 545 ;
546 [label=<gini = 0.0<br/>samples = 0.3%<br/>value = [0.0, 1.0, 0.0, 0.0, 0.0, 0.0]<br/>class = 2>, fillcolor="#9de539"] ;
545 -> 546 ;
547 [label=<gini = 0.0<br/>samples = 0.1%<br/>value = [1.0, 0.0, 0.0, 0.0, 0.0, 0.0]<br/>class = 1>, fillcolor="#e58139"] ;
545 -> 547 ;
548 [label=<Age &le; 26.5<br/>gini = 0.76<br/>samples = 1.4%<br/>value = [0.0, 0.21, 0.36, 0.14, 0.07, 0.21]<br/>class = 3>, fillcolor="#dbfae8"] ;
542 -> 548 ;
549 [label=<Obligation &le; 0.99<br/>gini = 0.38<br/>samples = 0.4%<br/>value = [0.0, 0.0, 0.75, 0.25, 0.0, 0.0]<br/>class = 3>, fillcolor="#7beeab"] ;
548 -> 549 ;
550 [label=<gini = 0.0<br/>samples = 0.3%<br/>value = [0.0, 0.0, 1.0, 0.0, 0.0, 0.0]<br/>class = 3>, fillcolor="#39e581"] ;
549 -> 550 ;
551 [label=<gini = 0.0<br/>samples = 0.1%<br/>value = [0.0, 0.0, 0.0, 1.0, 0.0, 0.0]<br/>class = 4>, fillcolor="#399de5"] ;
549 -> 551 ;
552 [label=<Obligation &le; 0.95<br/>gini = 0.76<br/>samples = 1.0%<br/>value = [0.0, 0.3, 0.2, 0.1, 0.1, 0.3]<br/>class = 2>, fillcolor="#ffffff"] ;
548 -> 552 ;
553 [label=<gini = 0.0<br/>samples = 0.1%<br/>value = [0.0, 0.0, 0.0, 0.0, 1.0, 0.0]<br/>class = 5>, fillcolor="#8139e5"] ;
552 -> 553 ;
554 [label=<Age &le; 31.0<br/>gini = 0.72<br/>samples = 0.9%<br/>value = [0.0, 0.33, 0.22, 0.11, 0.0, 0.33]<br/>class = 2>, fillcolor="#ffffff"] ;
552 -> 554 ;
555 [label=<Obligation &le; 0.96<br/>gini = 0.65<br/>samples = 0.7%<br/>value = [0.0, 0.43, 0.29, 0.0, 0.0, 0.29]<br/>class = 2>, fillcolor="#ebfad7"] ;
554 -> 555 ;
556 [label=<Age &le; 27.5<br/>gini = 0.44<br/>samples = 0.3%<br/>value = [0.0, 0.33, 0.0, 0.0, 0.0, 0.67]<br/>class = 6>, fillcolor="#f29cce"] ;
555 -> 556 ;
557 [label=<Obligation &le; 0.96<br/>gini = 0.5<br/>samples = 0.2%<br/>value = [0.0, 0.5, 0.0, 0.0, 0.0, 0.5]<br/>class = 2>, fillcolor="#ffffff"] ;
556 -> 557 ;
558 [label=<gini = 0.0<br/>samples = 0.1%<br/>value = [0.0, 1.0, 0.0, 0.0, 0.0, 0.0]<br/>class = 2>, fillcolor="#9de539"] ;
557 -> 558 ;
559 [label=<gini = 0.0<br/>samples = 0.1%<br/>value = [0.0, 0.0, 0.0, 0.0, 0.0, 1.0]<br/>class = 6>, fillcolor="#e5399d"] ;
557 -> 559 ;
560 [label=<gini = 0.0<br/>samples = 0.1%<br/>value = [0.0, 0.0, 0.0, 0.0, 0.0, 1.0]<br/>class = 6>, fillcolor="#e5399d"] ;
556 -> 560 ;
561 [label=<Age &le; 29.5<br/>gini = 0.5<br/>samples = 0.4%<br/>value = [0.0, 0.5, 0.5, 0.0, 0.0, 0.0]<br/>class = 2>, fillcolor="#ffffff"] ;
555 -> 561 ;
562 [label=<Obligation &le; 0.99<br/>gini = 0.44<br/>samples = 0.3%<br/>value = [0.0, 0.33, 0.67, 0.0, 0.0, 0.0]<br/>class = 3>, fillcolor="#9cf2c0"] ;
561 -> 562 ;
563 [label=<gini = 0.0<br/>samples = 0.2%<br/>value = [0.0, 0.0, 1.0, 0.0, 0.0, 0.0]<br/>class = 3>, fillcolor="#39e581"] ;
562 -> 563 ;
564 [label=<gini = 0.0<br/>samples = 0.1%<br/>value = [0.0, 1.0, 0.0, 0.0, 0.0, 0.0]<br/>class = 2>, fillcolor="#9de539"] ;
562 -> 564 ;
565 [label=<gini = 0.0<br/>samples = 0.1%<br/>value = [0.0, 1.0, 0.0, 0.0, 0.0, 0.0]<br/>class = 2>, fillcolor="#9de539"] ;
561 -> 565 ;
566 [label=<Obligation &le; 0.98<br/>gini = 0.5<br/>samples = 0.2%<br/>value = [0.0, 0.0, 0.0, 0.5, 0.0, 0.5]<br/>class = 4>, fillcolor="#ffffff"] ;
554 -> 566 ;
567 [label=<gini = 0.0<br/>samples = 0.1%<br/>value = [0.0, 0.0, 0.0, 1.0, 0.0, 0.0]<br/>class = 4>, fillcolor="#399de5"] ;
566 -> 567 ;
568 [label=<gini = 0.0<br/>samples = 0.1%<br/>value = [0.0, 0.0, 0.0, 0.0, 0.0, 1.0]<br/>class = 6>, fillcolor="#e5399d"] ;
566 -> 568 ;
569 [label=<Age &le; 36.5<br/>gini = 0.69<br/>samples = 1.1%<br/>value = [0.45, 0.27, 0.09, 0.09, 0.0, 0.09]<br/>class = 1>, fillcolor="#f8e0ce"] ;
541 -> 569 ;
570 [label=<Age &le; 34.5<br/>gini = 0.61<br/>samples = 0.7%<br/>value = [0.43, 0.43, 0.0, 0.0, 0.0, 0.14]<br/>class = 1>, fillcolor="#ffffff"] ;
569 -> 570 ;
571 [label=<Obligation &le; 0.96<br/>gini = 0.5<br/>samples = 0.2%<br/>value = [0.5, 0.0, 0.0, 0.0, 0.0, 0.5]<br/>class = 1>, fillcolor="#ffffff"] ;
570 -> 571 ;
572 [label=<gini = 0.0<br/>samples = 0.1%<br/>value = [1.0, 0.0, 0.0, 0.0, 0.0, 0.0]<br/>class = 1>, fillcolor="#e58139"] ;
571 -> 572 ;
573 [label=<gini = 0.0<br/>samples = 0.1%<br/>value = [0.0, 0.0, 0.0, 0.0, 0.0, 1.0]<br/>class = 6>, fillcolor="#e5399d"] ;
571 -> 573 ;
574 [label=<Obligation &le; 0.99<br/>gini = 0.48<br/>samples = 0.5%<br/>value = [0.4, 0.6, 0.0, 0.0, 0.0, 0.0]<br/>class = 2>, fillcolor="#def6bd"] ;
570 -> 574 ;
575 [label=<Obligation &le; 0.97<br/>gini = 0.38<br/>samples = 0.4%<br/>value = [0.25, 0.75, 0.0, 0.0, 0.0, 0.0]<br/>class = 2>, fillcolor="#beee7b"] ;
574 -> 575 ;
576 [label=<Obligation &le; 0.96<br/>gini = 0.5<br/>samples = 0.2%<br/>value = [0.5, 0.5, 0.0, 0.0, 0.0, 0.0]<br/>class = 1>, fillcolor="#ffffff"] ;
575 -> 576 ;
577 [label=<gini = 0.0<br/>samples = 0.1%<br/>value = [0.0, 1.0, 0.0, 0.0, 0.0, 0.0]<br/>class = 2>, fillcolor="#9de539"] ;
576 -> 577 ;
578 [label=<gini = 0.0<br/>samples = 0.1%<br/>value = [1.0, 0.0, 0.0, 0.0, 0.0, 0.0]<br/>class = 1>, fillcolor="#e58139"] ;
576 -> 578 ;
579 [label=<gini = 0.0<br/>samples = 0.2%<br/>value = [0.0, 1.0, 0.0, 0.0, 0.0, 0.0]<br/>class = 2>, fillcolor="#9de539"] ;
575 -> 579 ;
580 [label=<gini = 0.0<br/>samples = 0.1%<br/>value = [1.0, 0.0, 0.0, 0.0, 0.0, 0.0]<br/>class = 1>, fillcolor="#e58139"] ;
574 -> 580 ;
581 [label=<Age &le; 38.0<br/>gini = 0.62<br/>samples = 0.4%<br/>value = [0.5, 0.0, 0.25, 0.25, 0.0, 0.0]<br/>class = 1>, fillcolor="#f6d5bd"] ;
569 -> 581 ;
582 [label=<gini = 0.0<br/>samples = 0.1%<br/>value = [0.0, 0.0, 0.0, 1.0, 0.0, 0.0]<br/>class = 4>, fillcolor="#399de5"] ;
581 -> 582 ;
583 [label=<Obligation &le; 0.97<br/>gini = 0.44<br/>samples = 0.3%<br/>value = [0.67, 0.0, 0.33, 0.0, 0.0, 0.0]<br/>class = 1>, fillcolor="#f2c09c"] ;
581 -> 583 ;
584 [label=<gini = 0.0<br/>samples = 0.1%<br/>value = [0.0, 0.0, 1.0, 0.0, 0.0, 0.0]<br/>class = 3>, fillcolor="#39e581"] ;
583 -> 584 ;
585 [label=<gini = 0.0<br/>samples = 0.2%<br/>value = [1.0, 0.0, 0.0, 0.0, 0.0, 0.0]<br/>class = 1>, fillcolor="#e58139"] ;
583 -> 585 ;
586 [label=<Obligation &le; 0.1<br/>gini = 0.83<br/>samples = 57.8%<br/>value = [0.16, 0.17, 0.13, 0.19, 0.2, 0.15]<br/>class = 5>, fillcolor="#fdfcff"] ;
0 -> 586 [labeldistance=2.5, labelangle=-45, headlabel="False"] ;
587 [label=<Obligation &le; 0.06<br/>gini = 0.78<br/>samples = 5.4%<br/>value = [0.11, 0.24, 0.15, 0.09, 0.33, 0.07]<br/>class = 5>, fillcolor="#f0e7fc"] ;
586 -> 587 ;
588 [label=<Obligation &le; 0.05<br/>gini = 0.77<br/>samples = 3.1%<br/>value = [0.13, 0.1, 0.19, 0.13, 0.39, 0.06]<br/>class = 5>, fillcolor="#e1cff9"] ;
587 -> 588 ;
589 [label=<Age &le; 62.5<br/>gini = 0.81<br/>samples = 2.3%<br/>value = [0.13, 0.13, 0.26, 0.13, 0.26, 0.09]<br/>class = 3>, fillcolor="#ffffff"] ;
588 -> 589 ;
590 [label=<Obligation &le; 0.0<br/>gini = 0.75<br/>samples = 1.6%<br/>value = [0.19, 0.06, 0.31, 0.0, 0.31, 0.12]<br/>class = 3>, fillcolor="#ffffff"] ;
589 -> 590 ;
591 [label=<gini = 0.0<br/>samples = 0.1%<br/>value = [0.0, 0.0, 0.0, 0.0, 0.0, 1.0]<br/>class = 6>, fillcolor="#e5399d"] ;
590 -> 591 ;
592 [label=<Obligation &le; 0.03<br/>gini = 0.73<br/>samples = 1.5%<br/>value = [0.2, 0.07, 0.33, 0.0, 0.33, 0.07]<br/>class = 3>, fillcolor="#ffffff"] ;
590 -> 592 ;
593 [label=<Age &le; 44.5<br/>gini = 0.68<br/>samples = 1.1%<br/>value = [0.18, 0.09, 0.27, 0.0, 0.45, 0.0]<br/>class = 5>, fillcolor="#e0cef8"] ;
592 -> 593 ;
594 [label=<Obligation &le; 0.01<br/>gini = 0.5<br/>samples = 0.4%<br/>value = [0.5, 0.0, 0.0, 0.0, 0.5, 0.0]<br/>class = 1>, fillcolor="#ffffff"] ;
593 -> 594 ;
595 [label=<gini = 0.0<br/>samples = 0.1%<br/>value = [0.0, 0.0, 0.0, 0.0, 1.0, 0.0]<br/>class = 5>, fillcolor="#8139e5"] ;
594 -> 595 ;
596 [label=<Obligation &le; 0.02<br/>gini = 0.44<br/>samples = 0.3%<br/>value = [0.67, 0.0, 0.0, 0.0, 0.33, 0.0]<br/>class = 1>, fillcolor="#f2c09c"] ;
594 -> 596 ;
597 [label=<gini = 0.0<br/>samples = 0.2%<br/>value = [1.0, 0.0, 0.0, 0.0, 0.0, 0.0]<br/>class = 1>, fillcolor="#e58139"] ;
596 -> 597 ;
598 [label=<gini = 0.0<br/>samples = 0.1%<br/>value = [0.0, 0.0, 0.0, 0.0, 1.0, 0.0]<br/>class = 5>, fillcolor="#8139e5"] ;
596 -> 598 ;
599 [label=<Obligation &le; 0.02<br/>gini = 0.61<br/>samples = 0.7%<br/>value = [0.0, 0.14, 0.43, 0.0, 0.43, 0.0]<br/>class = 3>, fillcolor="#ffffff"] ;
593 -> 599 ;
600 [label=<Age &le; 55.0<br/>gini = 0.56<br/>samples = 0.5%<br/>value = [0.0, 0.2, 0.6, 0.0, 0.2, 0.0]<br/>class = 3>, fillcolor="#9cf2c0"] ;
599 -> 600 ;
601 [label=<Obligation &le; 0.01<br/>gini = 0.38<br/>samples = 0.4%<br/>value = [0.0, 0.25, 0.75, 0.0, 0.0, 0.0]<br/>class = 3>, fillcolor="#7beeab"] ;
600 -> 601 ;
602 [label=<Obligation &le; 0.0<br/>gini = 0.5<br/>samples = 0.2%<br/>value = [0.0, 0.5, 0.5, 0.0, 0.0, 0.0]<br/>class = 2>, fillcolor="#ffffff"] ;
601 -> 602 ;
603 [label=<gini = 0.0<br/>samples = 0.1%<br/>value = [0.0, 0.0, 1.0, 0.0, 0.0, 0.0]<br/>class = 3>, fillcolor="#39e581"] ;
602 -> 603 ;
604 [label=<gini = 0.0<br/>samples = 0.1%<br/>value = [0.0, 1.0, 0.0, 0.0, 0.0, 0.0]<br/>class = 2>, fillcolor="#9de539"] ;
602 -> 604 ;
605 [label=<gini = 0.0<br/>samples = 0.2%<br/>value = [0.0, 0.0, 1.0, 0.0, 0.0, 0.0]<br/>class = 3>, fillcolor="#39e581"] ;
601 -> 605 ;
606 [label=<gini = 0.0<br/>samples = 0.1%<br/>value = [0.0, 0.0, 0.0, 0.0, 1.0, 0.0]<br/>class = 5>, fillcolor="#8139e5"] ;
600 -> 606 ;
607 [label=<gini = 0.0<br/>samples = 0.2%<br/>value = [0.0, 0.0, 0.0, 0.0, 1.0, 0.0]<br/>class = 5>, fillcolor="#8139e5"] ;
599 -> 607 ;
608 [label=<Age &le; 59.5<br/>gini = 0.62<br/>samples = 0.4%<br/>value = [0.25, 0.0, 0.5, 0.0, 0.0, 0.25]<br/>class = 3>, fillcolor="#bdf6d5"] ;
592 -> 608 ;
609 [label=<Age &le; 49.5<br/>gini = 0.44<br/>samples = 0.3%<br/>value = [0.0, 0.0, 0.67, 0.0, 0.0, 0.33]<br/>class = 3>, fillcolor="#9cf2c0"] ;
608 -> 609 ;
610 [label=<gini = 0.0<br/>samples = 0.1%<br/>value = [0.0, 0.0, 1.0, 0.0, 0.0, 0.0]<br/>class = 3>, fillcolor="#39e581"] ;
609 -> 610 ;
611 [label=<Age &le; 56.0<br/>gini = 0.5<br/>samples = 0.2%<br/>value = [0.0, 0.0, 0.5, 0.0, 0.0, 0.5]<br/>class = 3>, fillcolor="#ffffff"] ;
609 -> 611 ;
612 [label=<gini = 0.0<br/>samples = 0.1%<br/>value = [0.0, 0.0, 0.0, 0.0, 0.0, 1.0]<br/>class = 6>, fillcolor="#e5399d"] ;
611 -> 612 ;
613 [label=<gini = 0.0<br/>samples = 0.1%<br/>value = [0.0, 0.0, 1.0, 0.0, 0.0, 0.0]<br/>class = 3>, fillcolor="#39e581"] ;
611 -> 613 ;
614 [label=<gini = 0.0<br/>samples = 0.1%<br/>value = [1.0, 0.0, 0.0, 0.0, 0.0, 0.0]<br/>class = 1>, fillcolor="#e58139"] ;
608 -> 614 ;
615 [label=<Obligation &le; 0.02<br/>gini = 0.69<br/>samples = 0.7%<br/>value = [0.0, 0.29, 0.14, 0.43, 0.14, 0.0]<br/>class = 4>, fillcolor="#d7ebfa"] ;
589 -> 615 ;
616 [label=<Obligation &le; 0.01<br/>gini = 0.56<br/>samples = 0.5%<br/>value = [0.0, 0.0, 0.2, 0.6, 0.2, 0.0]<br/>class = 4>, fillcolor="#9ccef2"] ;
615 -> 616 ;
617 [label=<Obligation &le; 0.0<br/>gini = 0.5<br/>samples = 0.2%<br/>value = [0.0, 0.0, 0.5, 0.0, 0.5, 0.0]<br/>class = 3>, fillcolor="#ffffff"] ;
616 -> 617 ;
618 [label=<gini = 0.0<br/>samples = 0.1%<br/>value = [0.0, 0.0, 1.0, 0.0, 0.0, 0.0]<br/>class = 3>, fillcolor="#39e581"] ;
617 -> 618 ;
619 [label=<gini = 0.0<br/>samples = 0.1%<br/>value = [0.0, 0.0, 0.0, 0.0, 1.0, 0.0]<br/>class = 5>, fillcolor="#8139e5"] ;
617 -> 619 ;
620 [label=<gini = 0.0<br/>samples = 0.3%<br/>value = [0.0, 0.0, 0.0, 1.0, 0.0, 0.0]<br/>class = 4>, fillcolor="#399de5"] ;
616 -> 620 ;
621 [label=<gini = 0.0<br/>samples = 0.2%<br/>value = [0.0, 1.0, 0.0, 0.0, 0.0, 0.0]<br/>class = 2>, fillcolor="#9de539"] ;
615 -> 621 ;
622 [label=<Obligation &le; 0.06<br/>gini = 0.41<br/>samples = 0.8%<br/>value = [0.12, 0.0, 0.0, 0.12, 0.75, 0.0]<br/>class = 5>, fillcolor="#a572ec"] ;
588 -> 622 ;
623 [label=<gini = 0.0<br/>samples = 0.4%<br/>value = [0.0, 0.0, 0.0, 0.0, 1.0, 0.0]<br/>class = 5>, fillcolor="#8139e5"] ;
622 -> 623 ;
624 [label=<Obligation &le; 0.06<br/>gini = 0.62<br/>samples = 0.4%<br/>value = [0.25, 0.0, 0.0, 0.25, 0.5, 0.0]<br/>class = 5>, fillcolor="#d5bdf6"] ;
622 -> 624 ;
625 [label=<gini = 0.0<br/>samples = 0.1%<br/>value = [0.0, 0.0, 0.0, 1.0, 0.0, 0.0]<br/>class = 4>, fillcolor="#399de5"] ;
624 -> 625 ;
626 [label=<Obligation &le; 0.06<br/>gini = 0.44<br/>samples = 0.3%<br/>value = [0.33, 0.0, 0.0, 0.0, 0.67, 0.0]<br/>class = 5>, fillcolor="#c09cf2"] ;
624 -> 626 ;
627 [label=<gini = 0.0<br/>samples = 0.1%<br/>value = [0.0, 0.0, 0.0, 0.0, 1.0, 0.0]<br/>class = 5>, fillcolor="#8139e5"] ;
626 -> 627 ;
628 [label=<Age &le; 48.0<br/>gini = 0.5<br/>samples = 0.2%<br/>value = [0.5, 0.0, 0.0, 0.0, 0.5, 0.0]<br/>class = 1>, fillcolor="#ffffff"] ;
626 -> 628 ;
629 [label=<gini = 0.0<br/>samples = 0.1%<br/>value = [0.0, 0.0, 0.0, 0.0, 1.0, 0.0]<br/>class = 5>, fillcolor="#8139e5"] ;
628 -> 629 ;
630 [label=<gini = 0.0<br/>samples = 0.1%<br/>value = [1.0, 0.0, 0.0, 0.0, 0.0, 0.0]<br/>class = 1>, fillcolor="#e58139"] ;
628 -> 630 ;
631 [label=<Obligation &le; 0.1<br/>gini = 0.72<br/>samples = 2.3%<br/>value = [0.09, 0.43, 0.09, 0.04, 0.26, 0.09]<br/>class = 2>, fillcolor="#e8f9d0"] ;
587 -> 631 ;
632 [label=<Age &le; 43.5<br/>gini = 0.7<br/>samples = 2.0%<br/>value = [0.1, 0.5, 0.1, 0.05, 0.15, 0.1]<br/>class = 2>, fillcolor="#d7f4ad"] ;
631 -> 632 ;
633 [label=<Obligation &le; 0.09<br/>gini = 0.5<br/>samples = 0.2%<br/>value = [0.5, 0.0, 0.0, 0.5, 0.0, 0.0]<br/>class = 1>, fillcolor="#ffffff"] ;
632 -> 633 ;
634 [label=<gini = 0.0<br/>samples = 0.1%<br/>value = [1.0, 0.0, 0.0, 0.0, 0.0, 0.0]<br/>class = 1>, fillcolor="#e58139"] ;
633 -> 634 ;
635 [label=<gini = 0.0<br/>samples = 0.1%<br/>value = [0.0, 0.0, 0.0, 1.0, 0.0, 0.0]<br/>class = 4>, fillcolor="#399de5"] ;
633 -> 635 ;
636 [label=<Age &le; 61.5<br/>gini = 0.64<br/>samples = 1.8%<br/>value = [0.06, 0.56, 0.11, 0.0, 0.17, 0.11]<br/>class = 2>, fillcolor="#d1f3a3"] ;
632 -> 636 ;
637 [label=<Obligation &le; 0.09<br/>gini = 0.54<br/>samples = 1.4%<br/>value = [0.07, 0.64, 0.14, 0.0, 0.14, 0.0]<br/>class = 2>, fillcolor="#c6f08c"] ;
636 -> 637 ;
638 [label=<Age &le; 56.5<br/>gini = 0.5<br/>samples = 1.2%<br/>value = [0.0, 0.67, 0.17, 0.0, 0.17, 0.0]<br/>class = 2>, fillcolor="#c4ef88"] ;
637 -> 638 ;
639 [label=<Age &le; 52.0<br/>gini = 0.59<br/>samples = 0.9%<br/>value = [0.0, 0.56, 0.22, 0.0, 0.22, 0.0]<br/>class = 2>, fillcolor="#d5f4aa"] ;
638 -> 639 ;
640 [label=<Age &le; 47.5<br/>gini = 0.32<br/>samples = 0.5%<br/>value = [0.0, 0.8, 0.0, 0.0, 0.2, 0.0]<br/>class = 2>, fillcolor="#b6ec6a"] ;
639 -> 640 ;
641 [label=<Obligation &le; 0.08<br/>gini = 0.5<br/>samples = 0.2%<br/>value = [0.0, 0.5, 0.0, 0.0, 0.5, 0.0]<br/>class = 2>, fillcolor="#ffffff"] ;
640 -> 641 ;
642 [label=<gini = 0.0<br/>samples = 0.1%<br/>value = [0.0, 0.0, 0.0, 0.0, 1.0, 0.0]<br/>class = 5>, fillcolor="#8139e5"] ;
641 -> 642 ;
643 [label=<gini = 0.0<br/>samples = 0.1%<br/>value = [0.0, 1.0, 0.0, 0.0, 0.0, 0.0]<br/>class = 2>, fillcolor="#9de539"] ;
641 -> 643 ;
644 [label=<gini = 0.0<br/>samples = 0.3%<br/>value = [0.0, 1.0, 0.0, 0.0, 0.0, 0.0]<br/>class = 2>, fillcolor="#9de539"] ;
640 -> 644 ;
645 [label=<Age &le; 54.0<br/>gini = 0.62<br/>samples = 0.4%<br/>value = [0.0, 0.25, 0.5, 0.0, 0.25, 0.0]<br/>class = 3>, fillcolor="#bdf6d5"] ;
639 -> 645 ;
646 [label=<gini = 0.0<br/>samples = 0.1%<br/>value = [0.0, 0.0, 1.0, 0.0, 0.0, 0.0]<br/>class = 3>, fillcolor="#39e581"] ;
645 -> 646 ;
647 [label=<Age &le; 55.5<br/>gini = 0.67<br/>samples = 0.3%<br/>value = [0.0, 0.33, 0.33, 0.0, 0.33, 0.0]<br/>class = 2>, fillcolor="#ffffff"] ;
645 -> 647 ;
648 [label=<gini = 0.0<br/>samples = 0.1%<br/>value = [0.0, 0.0, 0.0, 0.0, 1.0, 0.0]<br/>class = 5>, fillcolor="#8139e5"] ;
647 -> 648 ;
649 [label=<Obligation &le; 0.07<br/>gini = 0.5<br/>samples = 0.2%<br/>value = [0.0, 0.5, 0.5, 0.0, 0.0, 0.0]<br/>class = 2>, fillcolor="#ffffff"] ;
647 -> 649 ;
650 [label=<gini = 0.0<br/>samples = 0.1%<br/>value = [0.0, 0.0, 1.0, 0.0, 0.0, 0.0]<br/>class = 3>, fillcolor="#39e581"] ;
649 -> 650 ;
651 [label=<gini = 0.0<br/>samples = 0.1%<br/>value = [0.0, 1.0, 0.0, 0.0, 0.0, 0.0]<br/>class = 2>, fillcolor="#9de539"] ;
649 -> 651 ;
652 [label=<gini = 0.0<br/>samples = 0.3%<br/>value = [0.0, 1.0, 0.0, 0.0, 0.0, 0.0]<br/>class = 2>, fillcolor="#9de539"] ;
638 -> 652 ;
653 [label=<Age &le; 57.0<br/>gini = 0.5<br/>samples = 0.2%<br/>value = [0.5, 0.5, 0.0, 0.0, 0.0, 0.0]<br/>class = 1>, fillcolor="#ffffff"] ;
637 -> 653 ;
654 [label=<gini = 0.0<br/>samples = 0.1%<br/>value = [0.0, 1.0, 0.0, 0.0, 0.0, 0.0]<br/>class = 2>, fillcolor="#9de539"] ;
653 -> 654 ;
655 [label=<gini = 0.0<br/>samples = 0.1%<br/>value = [1.0, 0.0, 0.0, 0.0, 0.0, 0.0]<br/>class = 1>, fillcolor="#e58139"] ;
653 -> 655 ;
656 [label=<Age &le; 64.5<br/>gini = 0.62<br/>samples = 0.4%<br/>value = [0.0, 0.25, 0.0, 0.0, 0.25, 0.5]<br/>class = 6>, fillcolor="#f6bdde"] ;
636 -> 656 ;
657 [label=<gini = 0.0<br/>samples = 0.2%<br/>value = [0.0, 0.0, 0.0, 0.0, 0.0, 1.0]<br/>class = 6>, fillcolor="#e5399d"] ;
656 -> 657 ;
658 [label=<Obligation &le; 0.08<br/>gini = 0.5<br/>samples = 0.2%<br/>value = [0.0, 0.5, 0.0, 0.0, 0.5, 0.0]<br/>class = 2>, fillcolor="#ffffff"] ;
656 -> 658 ;
